{
    "highscore": 262.3462641973384,
    "networks": [
        {
            "_info": "NeuralNetwork generated with python-neural-network by rafaelurben",
            "_url": "https://github.com/rafaelurben/python-neural-network",
            "sizes": [
                6,
                4,
                2
            ],
            "biases": [
                [
                    1.6891019855926386,
                    -0.9984514766889523,
                    -0.14023973389753136,
                    -0.5611902213713712
                ],
                [
                    -0.1277319809715519,
                    -0.5486634862332516
                ]
            ],
            "weights": [
                [
                    [
                        1.2097768364281645,
                        -0.9174118204526012,
                        0.4955790433914241,
                        0.44686263020721034,
                        -0.1286805612708369,
                        -0.27613506506683744
                    ],
                    [
                        -0.20676986856480034,
                        0.20569101364232473,
                        -1.3134560361764034,
                        -1.0326701328921717,
                        0.709103298566317,
                        -0.934219883122922
                    ],
                    [
                        0.34278107326003493,
                        0.9431860427616758,
                        0.879126310075378,
                        -1.1911636997885067,
                        0.2468393113543786,
                        -1.498656602185445
                    ],
                    [
                        0.046508185386226863,
                        0.48322927411064137,
                        -0.34530328531643173,
                        -0.1880435879951601,
                        -0.1642827291277904,
                        -0.7005568210311108
                    ]
                ],
                [
                    [
                        1.09486572041782,
                        -0.273205800157423,
                        0.12014856202446217,
                        0.9281647348430577
                    ],
                    [
                        0.9567114341633249,
                        0.4263579547911137,
                        -0.9214353954286895,
                        -0.02035977376277548
                    ]
                ]
            ],
            "actfuncs": [
                [
                    "relu",
                    "relu",
                    "relu",
                    "relu"
                ],
                [
                    "sigmoid",
                    "sigmoid"
                ]
            ]
        },
        {
            "_info": "NeuralNetwork generated with python-neural-network by rafaelurben",
            "_url": "https://github.com/rafaelurben/python-neural-network",
            "sizes": [
                6,
                4,
                2
            ],
            "biases": [
                [
                    1.369905714876798,
                    -1.0516816089445964,
                    -0.18871290374127828,
                    -0.4756956294893981
                ],
                [
                    -0.43884806672622456,
                    -0.7934031414164944
                ]
            ],
            "weights": [
                [
                    [
                        1.261517874989181,
                        -1.2018302622878414,
                        0.4496146606898452,
                        0.7838011059193739,
                        0.08901729882101711,
                        -0.5124613327513895
                    ],
                    [
                        -0.6088588323262843,
                        0.6531237335458315,
                        -1.2607682502861646,
                        -0.9787871623210112,
                        0.40178097268971397,
                        -0.6063868716220323
                    ],
                    [
                        0.6253962140689198,
                        0.8034430816364403,
                        0.6596711029235796,
                        -1.1729797521943346,
                        0.5847305475536749,
                        -1.4440507629830373
                    ],
                    [
                        0.788587278169995,
                        0.1567831170688594,
                        -0.22314320411315786,
                        -0.1357207873332435,
                        0.04240851084300157,
                        -0.42242932892973534
                    ]
                ],
                [
                    [
                        0.8593893330480052,
                        -0.47585464935186245,
                        0.12014856202446217,
                        1.0592425083899275
                    ],
                    [
                        0.6531018851176696,
                        0.590720516863017,
                        -0.7723973940604439,
                        0.15471995380877146
                    ]
                ]
            ],
            "actfuncs": [
                [
                    "relu",
                    "relu",
                    "relu",
                    "relu"
                ],
                [
                    "sigmoid",
                    "sigmoid"
                ]
            ]
        },
        {
            "_info": "NeuralNetwork generated with python-neural-network by rafaelurben",
            "_url": "https://github.com/rafaelurben/python-neural-network",
            "sizes": [
                6,
                4,
                2
            ],
            "biases": [
                [
                    1.570491687234898,
                    -1.2876729161091294,
                    -0.33292095375828556,
                    -0.6539354193017001
                ],
                [
                    -0.03276290108494376,
                    -0.5486634862332516
                ]
            ],
            "weights": [
                [
                    [
                        1.0632349163117158,
                        -0.9371138317607715,
                        0.6132735621256741,
                        0.5866457219176152,
                        -0.2678489390279896,
                        -0.22466319818598773
                    ],
                    [
                        -0.20676986856480034,
                        0.37656738581321353,
                        -1.126957359587558,
                        -1.0326701328921717,
                        0.7471032605455776,
                        -1.145694871411764
                    ],
                    [
                        0.42762715011660885,
                        0.8034430816364403,
                        0.8011973521000212,
                        -1.034379941351321,
                        0.4709915762646787,
                        -1.374366901238125
                    ],
                    [
                        0.046508185386226863,
                        0.20463204954678987,
                        -0.4778754191418685,
                        -0.3977769498601573,
                        -0.1642827291277904,
                        -0.7418861749504178
                    ]
                ],
                [
                    [
                        1.09486572041782,
                        -0.2618566751641829,
                        0.12014856202446217,
                        1.2086415382844755
                    ],
                    [
                        0.7814254927662062,
                        0.3211788089520736,
                        -0.9214353954286895,
                        0.1679195977020433
                    ]
                ]
            ],
            "actfuncs": [
                [
                    "relu",
                    "relu",
                    "relu",
                    "relu"
                ],
                [
                    "sigmoid",
                    "sigmoid"
                ]
            ]
        },
        {
            "_info": "NeuralNetwork generated with python-neural-network by rafaelurben",
            "_url": "https://github.com/rafaelurben/python-neural-network",
            "sizes": [
                6,
                4,
                2
            ],
            "biases": [
                [
                    1.1815519271937154,
                    -0.35780017163448397,
                    -0.3158563580603033,
                    0.44549978621546005
                ],
                [
                    -0.39734012318339984,
                    -0.9150190745046406
                ]
            ],
            "weights": [
                [
                    [
                        0.5094871896823969,
                        -0.7744229368817881,
                        0.543744183498304,
                        0.9773315016042448,
                        -0.13025454432503836,
                        -0.503792251204271
                    ],
                    [
                        0.3773892353089253,
                        1.1338258730866746,
                        -1.1419092558542943,
                        -0.06925352608929311,
                        0.4387428564787549,
                        -1.4224762185365967
                    ],
                    [
                        0.13184912662130918,
                        1.0852587888769871,
                        0.34357267242663003,
                        -0.45584420184895214,
                        0.1727790841576915,
                        -1.1219340377505425
                    ],
                    [
                        -0.013445623731185186,
                        0.2469761890003948,
                        -0.4106016385829091,
                        -0.4644918058085824,
                        0.06394636958149069,
                        -0.8497756558030125
                    ]
                ],
                [
                    [
                        1.1249222610537066,
                        0.27302366447078397,
                        0.08871273400877527,
                        0.33476221605132755
                    ],
                    [
                        0.6601200231730495,
                        0.24567044846825514,
                        -0.8168815206574487,
                        -0.14681182304318596
                    ]
                ]
            ],
            "actfuncs": [
                [
                    "relu",
                    "relu",
                    "relu",
                    "relu"
                ],
                [
                    "sigmoid",
                    "sigmoid"
                ]
            ]
        },
        {
            "_info": "NeuralNetwork generated with python-neural-network by rafaelurben",
            "_url": "https://github.com/rafaelurben/python-neural-network",
            "sizes": [
                6,
                4,
                2
            ],
            "biases": [
                [
                    1.663490349590689,
                    -1.1355600298067516,
                    -0.509881564290881,
                    -0.4046467238677357
                ],
                [
                    -0.5874475014616292,
                    -0.6992240132910292
                ]
            ],
            "weights": [
                [
                    [
                        0.9576795267767144,
                        -0.9371138317607715,
                        0.3167530648707448,
                        0.9615306868606946,
                        -0.15128596981740905,
                        -0.4384317307021549
                    ],
                    [
                        -0.6170528310255345,
                        0.6956946906932762,
                        -0.998476379717339,
                        -0.6828256414678193,
                        0.5311874055688365,
                        -0.9923420792084043
                    ],
                    [
                        0.6395868843987139,
                        0.7526101744184335,
                        0.7646641175171571,
                        -1.0258700382194952,
                        0.5847305475536749,
                        -1.374366901238125
                    ],
                    [
                        0.34452555923247424,
                        0.29740034645546404,
                        -0.2812181806297138,
                        -0.020344774276194244,
                        0.18898230273936217,
                        -0.6965339203668132
                    ]
                ],
                [
                    [
                        1.331932214608174,
                        -0.5356837517023536,
                        0.12014856202446217,
                        1.0141755745813832
                    ],
                    [
                        0.7910691917154881,
                        0.33133489868929156,
                        -0.7685172282972972,
                        0.15471995380877146
                    ]
                ]
            ],
            "actfuncs": [
                [
                    "relu",
                    "relu",
                    "relu",
                    "relu"
                ],
                [
                    "sigmoid",
                    "sigmoid"
                ]
            ]
        },
        {
            "_info": "NeuralNetwork generated with python-neural-network by rafaelurben",
            "_url": "https://github.com/rafaelurben/python-neural-network",
            "sizes": [
                6,
                4,
                2
            ],
            "biases": [
                [
                    1.716436915992121,
                    -1.402755972674668,
                    -0.2805027792520524,
                    -0.8170916430359478
                ],
                [
                    -0.01207005204356612,
                    -0.5486634862332516
                ]
            ],
            "weights": [
                [
                    [
                        0.8089384677374044,
                        -0.9371138317607715,
                        0.47308864125096606,
                        0.5866457219176152,
                        -0.07488817309556303,
                        -0.5239649308778371
                    ],
                    [
                        0.05253392782598948,
                        0.4067277231122246,
                        -1.3684912587531732,
                        -0.8123761322777976,
                        0.7471032605455776,
                        -1.2052625187392256
                    ],
                    [
                        0.42762715011660885,
                        0.8034430816364403,
                        0.7776192986428552,
                        -1.1756054189937684,
                        0.1959855198579865,
                        -1.3135606183758033
                    ],
                    [
                        0.21359892462216126,
                        0.4475006837094708,
                        -0.33676455988535603,
                        -0.16093476991593403,
                        -0.0016835349125094157,
                        -0.683241893549842
                    ]
                ],
                [
                    [
                        1.1051039021736218,
                        -0.2909398020671225,
                        0.12014856202446217,
                        1.3280128172772874
                    ],
                    [
                        0.7633728449654815,
                        0.3211788089520736,
                        -0.7375623591927641,
                        0.044319275201396224
                    ]
                ]
            ],
            "actfuncs": [
                [
                    "relu",
                    "relu",
                    "relu",
                    "relu"
                ],
                [
                    "sigmoid",
                    "sigmoid"
                ]
            ]
        },
        {
            "_info": "NeuralNetwork generated with python-neural-network by rafaelurben",
            "_url": "https://github.com/rafaelurben/python-neural-network",
            "sizes": [
                6,
                4,
                2
            ],
            "biases": [
                [
                    1.400955919199379,
                    -1.1355600298067516,
                    -0.3041298462764909,
                    -0.4046467238677357
                ],
                [
                    -0.2985628849710181,
                    -0.6378938856195293
                ]
            ],
            "weights": [
                [
                    [
                        0.9576795267767144,
                        -0.9371138317607715,
                        0.46860771688324204,
                        0.7838011059193739,
                        -0.018576208394216864,
                        -0.6774879303744037
                    ],
                    [
                        -0.6170528310255345,
                        0.4516594007435599,
                        -1.2613096116314177,
                        -0.6828256414678193,
                        0.5311874055688365,
                        -0.8044317828882224
                    ],
                    [
                        0.42762715011660885,
                        0.8034430816364403,
                        0.6798075720742576,
                        -1.0258700382194952,
                        0.5847305475536749,
                        -1.374366901238125
                    ],
                    [
                        0.5539677187717236,
                        0.2379481833339735,
                        -0.3347381208022471,
                        -0.1357207873332435,
                        0.04240851084300157,
                        -0.49113727494554
                    ]
                ],
                [
                    [
                        1.0442195285676803,
                        -0.28698364959294576,
                        0.12014856202446217,
                        0.8960795467849454
                    ],
                    [
                        0.6531018851176696,
                        0.33133489868929156,
                        -0.6291991136789327,
                        0.15471995380877146
                    ]
                ]
            ],
            "actfuncs": [
                [
                    "relu",
                    "relu",
                    "relu",
                    "relu"
                ],
                [
                    "sigmoid",
                    "sigmoid"
                ]
            ]
        },
        {
            "_info": "NeuralNetwork generated with python-neural-network by rafaelurben",
            "_url": "https://github.com/rafaelurben/python-neural-network",
            "sizes": [
                6,
                4,
                2
            ],
            "biases": [
                [
                    1.3507593929514567,
                    -1.1355600298067516,
                    -0.1108533756344861,
                    -0.5356255228292499
                ],
                [
                    -0.2985628849710181,
                    -0.45642498625141736
                ]
            ],
            "weights": [
                [
                    [
                        0.9576795267767144,
                        -0.908711200077237,
                        0.6139466465661946,
                        0.5316604678691033,
                        -0.018576208394216864,
                        -0.4810547592480343
                    ],
                    [
                        -0.47858193057716486,
                        0.46630275496826895,
                        -1.2667787184977226,
                        -0.40574214521549223,
                        0.6259764247845953,
                        -0.6491191705593916
                    ],
                    [
                        0.27119862103790704,
                        0.5676366417465863,
                        0.9671304094439801,
                        -1.1800478116235378,
                        0.5847305475536749,
                        -1.2928755589615175
                    ],
                    [
                        0.5539677187717236,
                        0.4291642519652445,
                        -0.3347381208022471,
                        -0.1413791612715929,
                        0.04240851084300157,
                        -0.7119959782004531
                    ]
                ],
                [
                    [
                        0.7684711258317882,
                        -0.28698364959294576,
                        0.12014856202446217,
                        0.7547200248533921
                    ],
                    [
                        0.6531018851176696,
                        0.33133489868929156,
                        -0.806154405729157,
                        0.2413462240145863
                    ]
                ]
            ],
            "actfuncs": [
                [
                    "relu",
                    "relu",
                    "relu",
                    "relu"
                ],
                [
                    "sigmoid",
                    "sigmoid"
                ]
            ]
        },
        {
            "_info": "NeuralNetwork generated with python-neural-network by rafaelurben",
            "_url": "https://github.com/rafaelurben/python-neural-network",
            "sizes": [
                6,
                4,
                2
            ],
            "biases": [
                [
                    1.5817246604293833,
                    -1.4362726416160312,
                    -0.0050389233441762715,
                    -1.0167194365870436
                ],
                [
                    0.16674515976118812,
                    -0.6069776237934885
                ]
            ],
            "weights": [
                [
                    [
                        0.869152025656842,
                        -0.8269067984049314,
                        0.47308864125096606,
                        0.7735431034571214,
                        -0.07488817309556303,
                        -0.6566924077151295
                    ],
                    [
                        0.22961951943328218,
                        0.5906350198430053,
                        -1.3684912587531732,
                        -0.6793542869788989,
                        0.9868757917659141,
                        -0.9919637498192233
                    ],
                    [
                        0.42762715011660885,
                        0.8034430816364403,
                        0.695671698761684,
                        -1.1756054189937684,
                        0.45563932209379576,
                        -1.455567453165892
                    ],
                    [
                        -0.04765167159895303,
                        0.5867425247262941,
                        -0.29213726852410415,
                        -0.33718041651566744,
                        -0.03192952739137103,
                        -0.4424595244786008
                    ]
                ],
                [
                    [
                        1.1051039021736218,
                        -0.3883001203336382,
                        -0.0023790038052994844,
                        1.6148631856474083
                    ],
                    [
                        0.4780016365159874,
                        0.24053971591107792,
                        -0.7375623591927641,
                        -0.010234950001291376
                    ]
                ]
            ],
            "actfuncs": [
                [
                    "relu",
                    "relu",
                    "relu",
                    "relu"
                ],
                [
                    "sigmoid",
                    "sigmoid"
                ]
            ]
        },
        {
            "_info": "NeuralNetwork generated with python-neural-network by rafaelurben",
            "_url": "https://github.com/rafaelurben/python-neural-network",
            "sizes": [
                6,
                4,
                2
            ],
            "biases": [
                [
                    1.400955919199379,
                    -1.1355600298067516,
                    -0.20949408879511286,
                    -0.4046467238677357
                ],
                [
                    -0.10749061945501842,
                    -0.5825105540110448
                ]
            ],
            "weights": [
                [
                    [
                        1.1572195881996645,
                        -1.2262477745265536,
                        0.646817062222139,
                        0.7838011059193739,
                        -0.018576208394216864,
                        -0.6774879303744037
                    ],
                    [
                        -0.6170528310255345,
                        0.4516594007435599,
                        -1.1999007995147208,
                        -0.6828256414678193,
                        0.595314239885554,
                        -0.9592703084176053
                    ],
                    [
                        0.6367619341950462,
                        0.6350984987547417,
                        0.6798075720742576,
                        -0.9596165215156554,
                        0.8792119832917782,
                        -1.374366901238125
                    ],
                    [
                        0.7600000639848947,
                        0.2379481833339735,
                        -0.18469640565078352,
                        -0.1357207873332435,
                        0.04240851084300157,
                        -0.7680575295949963
                    ]
                ],
                [
                    [
                        1.173414894775462,
                        -0.28698364959294576,
                        0.10118355935636925,
                        0.8960795467849454
                    ],
                    [
                        0.4243517675089052,
                        0.38531264664653,
                        -0.35619103253916995,
                        0.15471995380877146
                    ]
                ]
            ],
            "actfuncs": [
                [
                    "relu",
                    "relu",
                    "relu",
                    "relu"
                ],
                [
                    "sigmoid",
                    "sigmoid"
                ]
            ]
        },
        {
            "_info": "NeuralNetwork generated with python-neural-network by rafaelurben",
            "_url": "https://github.com/rafaelurben/python-neural-network",
            "sizes": [
                6,
                4,
                2
            ],
            "biases": [
                [
                    1.4694480599121482,
                    -0.5992059138622665,
                    -0.3158563580603033,
                    0.44549978621546005
                ],
                [
                    -0.6469784326870593,
                    -1.1074061587149204
                ]
            ],
            "weights": [
                [
                    [
                        0.7097300654368315,
                        -1.0099958206082125,
                        0.543744183498304,
                        1.2643910327976027,
                        -0.049709376638917335,
                        -0.503792251204271
                    ],
                    [
                        0.6028527645557297,
                        1.2817740290574517,
                        -1.0113552192301,
                        -0.3553483272937241,
                        0.3811286498857231,
                        -1.4946769981884571
                    ],
                    [
                        0.376389202460102,
                        1.2826594831155946,
                        0.4603732780935046,
                        -0.6838262345837234,
                        0.33087020322677774,
                        -1.1219340377505425
                    ],
                    [
                        -0.15998478790041915,
                        0.3619559879114882,
                        -0.4106016385829091,
                        -0.41581614131560996,
                        0.06394636958149069,
                        -0.8497756558030125
                    ]
                ],
                [
                    [
                        1.35546843556547,
                        0.2027736995743007,
                        0.017345703560636694,
                        0.19289234589423537
                    ],
                    [
                        0.5869050672549783,
                        0.24567044846825514,
                        -0.7320778436842676,
                        0.058880527152193135
                    ]
                ]
            ],
            "actfuncs": [
                [
                    "relu",
                    "relu",
                    "relu",
                    "relu"
                ],
                [
                    "sigmoid",
                    "sigmoid"
                ]
            ]
        },
        {
            "_info": "NeuralNetwork generated with python-neural-network by rafaelurben",
            "_url": "https://github.com/rafaelurben/python-neural-network",
            "sizes": [
                6,
                4,
                2
            ],
            "biases": [
                [
                    1.4107127112881084,
                    -0.32986566484189234,
                    -0.5926084251065198,
                    0.44549978621546005
                ],
                [
                    -0.29364050585004414,
                    -0.9112242983286016
                ]
            ],
            "weights": [
                [
                    [
                        0.4906363147221367,
                        -0.6936427897552949,
                        0.3373554937724868,
                        0.8288139272156461,
                        -0.023422917899293155,
                        -0.503792251204271
                    ],
                    [
                        0.3773892353089253,
                        0.9881110551819406,
                        -1.3866764960580567,
                        -0.06925352608929311,
                        0.1487529655383149,
                        -1.1595606561749225
                    ],
                    [
                        0.13184912662130918,
                        1.3643284471871076,
                        0.3537993253055506,
                        -0.689176970140166,
                        0.2824725245149057,
                        -1.2691376750926815
                    ],
                    [
                        0.21020861232227045,
                        0.13626893189342104,
                        -0.18659037918315807,
                        -0.5663458792468644,
                        0.3207160826335657,
                        -0.8850371690084967
                    ]
                ],
                [
                    [
                        0.9103616279347369,
                        0.27302366447078397,
                        0.08871273400877527,
                        0.509712218102948
                    ],
                    [
                        0.6601200231730495,
                        -0.026261757540981978,
                        -0.5804975169057229,
                        -0.05574631874171099
                    ]
                ]
            ],
            "actfuncs": [
                [
                    "relu",
                    "relu",
                    "relu",
                    "relu"
                ],
                [
                    "sigmoid",
                    "sigmoid"
                ]
            ]
        },
        {
            "_info": "NeuralNetwork generated with python-neural-network by rafaelurben",
            "_url": "https://github.com/rafaelurben/python-neural-network",
            "sizes": [
                6,
                4,
                2
            ],
            "biases": [
                [
                    1.1460240658832173,
                    -0.4131387000281472,
                    -0.3158563580603033,
                    0.31532552045409196
                ],
                [
                    -0.4000095460159912,
                    -1.0059869327055113
                ]
            ],
            "weights": [
                [
                    [
                        0.6748241477914453,
                        -0.8490296071867562,
                        0.543744183498304,
                        0.8481281223312951,
                        -0.0024735359269528745,
                        -0.7878926395992494
                    ],
                    [
                        0.3051108188803449,
                        1.1338258730866746,
                        -0.967066213537902,
                        -0.32918681007231976,
                        0.7300707725310067,
                        -1.5344346391463386
                    ],
                    [
                        -0.06268439916760313,
                        1.1133275309358701,
                        0.4666163175547071,
                        -0.5240218195448185,
                        0.05129461653780509,
                        -0.9635990155070351
                    ],
                    [
                        -0.26732775328419595,
                        0.5278353945925285,
                        -0.42784813777412517,
                        -0.3858447732058081,
                        0.04259090324182058,
                        -0.809224288242302
                    ]
                ],
                [
                    [
                        1.1249222610537066,
                        0.43452543945703664,
                        0.007019289334783907,
                        0.2685794010270892
                    ],
                    [
                        0.6601200231730495,
                        -0.007129454033617033,
                        -1.0899136413190853,
                        -0.06273963640585234
                    ]
                ]
            ],
            "actfuncs": [
                [
                    "relu",
                    "relu",
                    "relu",
                    "relu"
                ],
                [
                    "sigmoid",
                    "sigmoid"
                ]
            ]
        },
        {
            "_info": "NeuralNetwork generated with python-neural-network by rafaelurben",
            "_url": "https://github.com/rafaelurben/python-neural-network",
            "sizes": [
                6,
                4,
                2
            ],
            "biases": [
                [
                    1.688515003498699,
                    -1.0140160192170975,
                    -0.3041298462764909,
                    -0.4216487306933835
                ],
                [
                    -0.249359185696798,
                    -0.6378938856195293
                ]
            ],
            "weights": [
                [
                    [
                        0.9576795267767144,
                        -1.1161098392256572,
                        0.38685115597231434,
                        1.0045045492927442,
                        -0.018576208394216864,
                        -0.5536723383832493
                    ],
                    [
                        -0.6170528310255345,
                        0.32198489212796305,
                        -1.2445580668213663,
                        -0.3874308513089932,
                        0.7324808998806778,
                        -0.8044317828882224
                    ],
                    [
                        0.1399418714698648,
                        0.7796617909707995,
                        0.7378817249386551,
                        -1.0258700382194952,
                        0.8259186708432706,
                        -1.374366901238125
                    ],
                    [
                        0.5085841223310555,
                        0.06509831645141123,
                        -0.3347381208022471,
                        0.06765059927333417,
                        0.04663993962785884,
                        -0.7847070986872912
                    ]
                ],
                [
                    [
                        0.8438533117761974,
                        -0.28698364959294576,
                        0.12014856202446217,
                        0.8463639621386385
                    ],
                    [
                        0.9093632404666747,
                        0.33133489868929156,
                        -0.6291991136789327,
                        -0.09068483838627067
                    ]
                ]
            ],
            "actfuncs": [
                [
                    "relu",
                    "relu",
                    "relu",
                    "relu"
                ],
                [
                    "sigmoid",
                    "sigmoid"
                ]
            ]
        },
        {
            "_info": "NeuralNetwork generated with python-neural-network by rafaelurben",
            "_url": "https://github.com/rafaelurben/python-neural-network",
            "sizes": [
                6,
                4,
                2
            ],
            "biases": [
                [
                    1.6543472802776318,
                    -1.137202071040439,
                    -0.4766262007900027,
                    -0.8170916430359478
                ],
                [
                    -0.01207005204356612,
                    -0.4068205164939327
                ]
            ],
            "weights": [
                [
                    [
                        0.8089384677374044,
                        -1.1044374782470012,
                        0.7393062279510392,
                        0.33652792255447145,
                        -0.09804888090560346,
                        -0.7565511069330428
                    ],
                    [
                        0.05253392782598948,
                        0.46832438356078976,
                        -1.2064231045289007,
                        -0.8704740864262285,
                        0.9002567042658458,
                        -1.2052625187392256
                    ],
                    [
                        0.4720574334363841,
                        0.8174849880071352,
                        0.8157596162816423,
                        -1.1756054189937684,
                        0.32218772941809926,
                        -1.4352599230311007
                    ],
                    [
                        0.19948387863176772,
                        0.24915501761187342,
                        -0.3934679117835088,
                        -0.028582460333402393,
                        -0.0016835349125094157,
                        -0.43444839516815437
                    ]
                ],
                [
                    [
                        1.1051039021736218,
                        -0.18569586821803835,
                        0.12040180412240525,
                        1.3280128172772874
                    ],
                    [
                        0.7633728449654815,
                        0.39950565162397256,
                        -0.7375623591927641,
                        0.044319275201396224
                    ]
                ]
            ],
            "actfuncs": [
                [
                    "relu",
                    "relu",
                    "relu",
                    "relu"
                ],
                [
                    "sigmoid",
                    "sigmoid"
                ]
            ]
        },
        {
            "_info": "NeuralNetwork generated with python-neural-network by rafaelurben",
            "_url": "https://github.com/rafaelurben/python-neural-network",
            "sizes": [
                6,
                4,
                2
            ],
            "biases": [
                [
                    1.8826897420076287,
                    -1.402755972674668,
                    -0.2805027792520524,
                    -1.0333942030777252
                ],
                [
                    -0.01207005204356612,
                    -0.6624187526770606
                ]
            ],
            "weights": [
                [
                    [
                        0.7532521594500333,
                        -0.7099745948669891,
                        0.3984536879941161,
                        0.5866457219176152,
                        -0.2872440673645925,
                        -0.29949430698082147
                    ],
                    [
                        0.18461403584043,
                        0.5229720097514653,
                        -1.2632662731442976,
                        -0.6611660164464274,
                        0.5119404919463268,
                        -1.2052625187392256
                    ],
                    [
                        0.5834227161921559,
                        0.6773966159640611,
                        0.9310534141868286,
                        -1.3943078921737466,
                        0.0627274185323064,
                        -1.366211609893498
                    ],
                    [
                        0.45162981455379114,
                        0.4930743324431357,
                        -0.4271754203356963,
                        -0.16575950095241737,
                        0.10043776869872106,
                        -0.683241893549842
                    ]
                ],
                [
                    [
                        1.3599817857494692,
                        -0.44004717449808134,
                        0.0694303859608052,
                        1.0720386250855576
                    ],
                    [
                        0.7633728449654815,
                        0.48159520366416303,
                        -0.6269813911724196,
                        0.30026717978808837
                    ]
                ]
            ],
            "actfuncs": [
                [
                    "relu",
                    "relu",
                    "relu",
                    "relu"
                ],
                [
                    "sigmoid",
                    "sigmoid"
                ]
            ]
        },
        {
            "_info": "NeuralNetwork generated with python-neural-network by rafaelurben",
            "_url": "https://github.com/rafaelurben/python-neural-network",
            "sizes": [
                6,
                4,
                2
            ],
            "biases": [
                [
                    1.86387634458505,
                    -1.37921090518816,
                    -0.04296328783780773,
                    -0.5727456927567744
                ],
                [
                    -0.03276290108494376,
                    -0.7470255403311759
                ]
            ],
            "weights": [
                [
                    [
                        1.1542683054482006,
                        -0.9371138317607715,
                        0.5716458598741256,
                        0.36363564885882255,
                        -0.2545122389724783,
                        0.01437675546485409
                    ],
                    [
                        -0.2208949455327151,
                        0.10770847153204632,
                        -1.126957359587558,
                        -1.2164153170034895,
                        0.8188368727296267,
                        -1.4418794762700171
                    ],
                    [
                        0.6906066672863173,
                        0.6893122710224112,
                        0.8011973521000212,
                        -1.2030542286677288,
                        0.2982404205189466,
                        -1.618770491868298
                    ],
                    [
                        0.34212578693523416,
                        0.20463204954678987,
                        -0.4755538126817299,
                        -0.14911099046787993,
                        -0.1642827291277904,
                        -0.8534754033411598
                    ]
                ],
                [
                    [
                        0.9033758580184881,
                        -0.1337215023807214,
                        0.12014856202446217,
                        1.2086415382844755
                    ],
                    [
                        0.648839511628196,
                        0.13750072395004048,
                        -0.9214353954286895,
                        0.4191543458099612
                    ]
                ]
            ],
            "actfuncs": [
                [
                    "relu",
                    "relu",
                    "relu",
                    "relu"
                ],
                [
                    "sigmoid",
                    "sigmoid"
                ]
            ]
        },
        {
            "_info": "NeuralNetwork generated with python-neural-network by rafaelurben",
            "_url": "https://github.com/rafaelurben/python-neural-network",
            "sizes": [
                6,
                4,
                2
            ],
            "biases": [
                [
                    1.4863535174435936,
                    -1.402755972674668,
                    -0.2805027792520524,
                    -0.8170916430359478
                ],
                [
                    -0.01207005204356612,
                    -0.31964537393389325
                ]
            ],
            "weights": [
                [
                    [
                        0.8613433542202508,
                        -0.9371138317607715,
                        0.47308864125096606,
                        0.7160144648516109,
                        -0.07488817309556303,
                        -0.4916429837320869
                    ],
                    [
                        -0.046326246149506256,
                        0.23519271134594044,
                        -1.5309883542557037,
                        -0.6518917546704934,
                        0.655291372186448,
                        -1.2052625187392256
                    ],
                    [
                        0.42762715011660885,
                        0.8034430816364403,
                        0.6666949337079069,
                        -1.1756054189937684,
                        0.42325431563264476,
                        -1.2142127000630147
                    ],
                    [
                        0.27585156507364667,
                        0.1561165397452658,
                        -0.3703537695779155,
                        -0.18207425994591742,
                        0.17943110494926975,
                        -0.40213260454093325
                    ]
                ],
                [
                    [
                        1.202435613574064,
                        -0.5391801395886393,
                        0.08971011465821982,
                        1.6194713580142397
                    ],
                    [
                        0.7633728449654815,
                        0.3211788089520736,
                        -0.7916864619999744,
                        -0.04318758261590028
                    ]
                ]
            ],
            "actfuncs": [
                [
                    "relu",
                    "relu",
                    "relu",
                    "relu"
                ],
                [
                    "sigmoid",
                    "sigmoid"
                ]
            ]
        },
        {
            "_info": "NeuralNetwork generated with python-neural-network by rafaelurben",
            "_url": "https://github.com/rafaelurben/python-neural-network",
            "sizes": [
                6,
                4,
                2
            ],
            "biases": [
                [
                    1.570491687234898,
                    -1.276803137433614,
                    -0.33292095375828556,
                    -0.8164602309277069
                ],
                [
                    -0.27722946879864774,
                    -0.7235313688933637
                ]
            ],
            "weights": [
                [
                    [
                        1.075017554771748,
                        -0.9371138317607715,
                        0.6132735621256741,
                        0.5866457219176152,
                        -0.2678489390279896,
                        -0.13272390675951226
                    ],
                    [
                        -0.3856776573531322,
                        0.28652186337120356,
                        -0.8402493992188096,
                        -0.9067868476444747,
                        0.580096332053732,
                        -1.024427604955369
                    ],
                    [
                        0.31140286320028876,
                        0.7023630977697746,
                        0.7160724226173847,
                        -1.1992290011127862,
                        0.4709915762646787,
                        -1.216443672843626
                    ],
                    [
                        0.095917655369224,
                        0.14961624044308536,
                        -0.4778754191418685,
                        -0.6177067397874854,
                        0.014308846080625548,
                        -1.0380052564358067
                    ]
                ],
                [
                    [
                        0.9496669918808358,
                        -0.2430912013248872,
                        0.12014856202446217,
                        1.0942694139713183
                    ],
                    [
                        0.7519700741168378,
                        0.4890857189663994,
                        -0.9214353954286895,
                        0.42162206786298123
                    ]
                ]
            ],
            "actfuncs": [
                [
                    "relu",
                    "relu",
                    "relu",
                    "relu"
                ],
                [
                    "sigmoid",
                    "sigmoid"
                ]
            ]
        },
        {
            "_info": "NeuralNetwork generated with python-neural-network by rafaelurben",
            "_url": "https://github.com/rafaelurben/python-neural-network",
            "sizes": [
                6,
                4,
                2
            ],
            "biases": [
                [
                    1.4323934821077442,
                    -1.0516816089445964,
                    -0.18871290374127828,
                    -0.4756956294893981
                ],
                [
                    -0.43884806672622456,
                    -0.7802093478224861
                ]
            ],
            "weights": [
                [
                    [
                        0.9907233090099707,
                        -0.9058383643636732,
                        0.4496146606898452,
                        1.0233323408471646,
                        0.1658779088978559,
                        -0.5531943754469059
                    ],
                    [
                        -0.8623415946061999,
                        0.8562194395387545,
                        -1.3002366947547295,
                        -1.0131553118662586,
                        0.6609499178001343,
                        -0.8131665367286909
                    ],
                    [
                        0.5847629696609467,
                        0.8034430816364403,
                        0.6002632730682143,
                        -1.2074590914456813,
                        0.5770463969447778,
                        -1.4899248633059268
                    ],
                    [
                        0.7193259884316393,
                        0.1097650211473753,
                        -0.20129806638175235,
                        -0.3192209086511349,
                        0.04240851084300157,
                        -0.5650177384504387
                    ]
                ],
                [
                    [
                        0.7064132367718234,
                        -0.47585464935186245,
                        0.12014856202446217,
                        1.0979939870733197
                    ],
                    [
                        0.7713843787238729,
                        0.590720516863017,
                        -0.8755111855025026,
                        0.03540325826855001
                    ]
                ]
            ],
            "actfuncs": [
                [
                    "relu",
                    "relu",
                    "relu",
                    "relu"
                ],
                [
                    "sigmoid",
                    "sigmoid"
                ]
            ]
        },
        {
            "_info": "NeuralNetwork generated with python-neural-network by rafaelurben",
            "_url": "https://github.com/rafaelurben/python-neural-network",
            "sizes": [
                6,
                4,
                2
            ],
            "biases": [
                [
                    1.716436915992121,
                    -1.5333733852222404,
                    -0.1448696980267987,
                    -0.8170916430359478
                ],
                [
                    -0.11627930328374511,
                    -0.26732085370395714
                ]
            ],
            "weights": [
                [
                    [
                        1.0036416872053182,
                        -1.101433885053925,
                        0.7613266965415877,
                        0.38434017000107573,
                        -0.09623006404911624,
                        -0.5239649308778371
                    ],
                    [
                        -0.007827237043236679,
                        0.4412092215432118,
                        -1.416116635856099,
                        -0.8163493481613402,
                        1.002733423417876,
                        -1.2052625187392256
                    ],
                    [
                        0.15138465626297792,
                        0.8721361636120168,
                        0.7776192986428552,
                        -1.431343156465368,
                        0.10150929180846613,
                        -1.3135606183758033
                    ],
                    [
                        0.3900734170648863,
                        0.4475006837094708,
                        -0.4358297937839151,
                        0.07561611816101887,
                        -0.12215445963185892,
                        -0.8774085978089968
                    ]
                ],
                [
                    [
                        1.1051039021736218,
                        -0.2909398020671225,
                        0.1033043970331915,
                        1.5215546774297515
                    ],
                    [
                        0.5441609803267102,
                        0.06600262751826153,
                        -1.0193848425914038,
                        -0.21834751228522614
                    ]
                ]
            ],
            "actfuncs": [
                [
                    "relu",
                    "relu",
                    "relu",
                    "relu"
                ],
                [
                    "sigmoid",
                    "sigmoid"
                ]
            ]
        },
        {
            "_info": "NeuralNetwork generated with python-neural-network by rafaelurben",
            "_url": "https://github.com/rafaelurben/python-neural-network",
            "sizes": [
                6,
                4,
                2
            ],
            "biases": [
                [
                    1.2662764881028603,
                    -1.3521039191528526,
                    -0.3756404775080601,
                    -0.4046467238677357
                ],
                [
                    -0.4514531108824829,
                    -0.6378938856195293
                ]
            ],
            "weights": [
                [
                    [
                        0.8988368037770679,
                        -0.8175797069776578,
                        0.46860771688324204,
                        0.6206299276409437,
                        -0.018576208394216864,
                        -0.6321044416962436
                    ],
                    [
                        -0.8155797094455552,
                        0.637023262807943,
                        -1.0090376968541326,
                        -0.9741732426564937,
                        0.7420276938923588,
                        -0.8781083808342347
                    ],
                    [
                        0.42762715011660885,
                        0.5465999768847953,
                        0.7630208266734009,
                        -1.0258700382194952,
                        0.5786360770934089,
                        -1.5755514678832632
                    ],
                    [
                        0.7673607076097377,
                        0.24915543442702537,
                        -0.5193426920355617,
                        -0.15217580548592619,
                        0.04240851084300157,
                        -0.22206959629685896
                    ]
                ],
                [
                    [
                        1.0442195285676803,
                        -0.40417516204821713,
                        0.18163649339275867,
                        0.7829149412521239
                    ],
                    [
                        0.6531018851176696,
                        0.4710148175668472,
                        -0.5873830429455995,
                        -0.11429098142903465
                    ]
                ]
            ],
            "actfuncs": [
                [
                    "relu",
                    "relu",
                    "relu",
                    "relu"
                ],
                [
                    "sigmoid",
                    "sigmoid"
                ]
            ]
        },
        {
            "_info": "NeuralNetwork generated with python-neural-network by rafaelurben",
            "_url": "https://github.com/rafaelurben/python-neural-network",
            "sizes": [
                6,
                4,
                2
            ],
            "biases": [
                [
                    0.8874725249788222,
                    -0.31686645000131464,
                    -0.3158563580603033,
                    0.6912527083310825
                ],
                [
                    -0.39734012318339984,
                    -0.9150190745046406
                ]
            ],
            "weights": [
                [
                    [
                        0.32085647710752685,
                        -1.0318445122399666,
                        0.543744183498304,
                        0.839778759402358,
                        -0.13025454432503836,
                        -0.503792251204271
                    ],
                    [
                        0.32835809973657903,
                        1.0225133130607804,
                        -1.1419092558542943,
                        -0.2760328285898297,
                        0.4387428564787549,
                        -1.4228883994103403
                    ],
                    [
                        -0.1557863708287562,
                        1.0852587888769871,
                        0.34357267242663003,
                        -0.3805176989287239,
                        0.1727790841576915,
                        -1.2942625883807535
                    ],
                    [
                        -0.013445623731185186,
                        0.2469761890003948,
                        -0.23528648756537845,
                        -0.5199826275100794,
                        0.17135297708761674,
                        -1.1481059530605937
                    ]
                ],
                [
                    [
                        1.1249222610537066,
                        0.27302366447078397,
                        0.08871273400877527,
                        0.3718587030503378
                    ],
                    [
                        0.6601200231730495,
                        0.5266375426253177,
                        -1.053152621232677,
                        0.047889422384016694
                    ]
                ]
            ],
            "actfuncs": [
                [
                    "relu",
                    "relu",
                    "relu",
                    "relu"
                ],
                [
                    "sigmoid",
                    "sigmoid"
                ]
            ]
        },
        {
            "_info": "NeuralNetwork generated with python-neural-network by rafaelurben",
            "_url": "https://github.com/rafaelurben/python-neural-network",
            "sizes": [
                6,
                4,
                2
            ],
            "biases": [
                [
                    1.1815519271937154,
                    -0.22885690901127473,
                    -0.24673304456063364,
                    0.2302770626843425
                ],
                [
                    -0.39734012318339984,
                    -0.9150190745046406
                ]
            ],
            "weights": [
                [
                    [
                        0.2302491867514404,
                        -0.8995099163166445,
                        0.543744183498304,
                        1.0430560047525663,
                        0.008865714212989678,
                        -0.503792251204271
                    ],
                    [
                        0.23269438196688758,
                        1.1338258730866746,
                        -1.1419092558542943,
                        0.05114363313639078,
                        0.1796224591886924,
                        -1.6328568344718761
                    ],
                    [
                        -0.1492542245985062,
                        0.9983840187742661,
                        0.5132866429944215,
                        -0.45584420184895214,
                        0.3364175441673773,
                        -0.9770769494678181
                    ],
                    [
                        -0.013445623731185186,
                        0.39253948187402976,
                        -0.3228970613887109,
                        -0.4644918058085824,
                        -0.14596002666974023,
                        -1.0315395792903939
                    ]
                ],
                [
                    [
                        1.2315110404283611,
                        0.002385721786275219,
                        0.08871273400877527,
                        0.33476221605132755
                    ],
                    [
                        0.7553959238467506,
                        0.49297941730315703,
                        -0.7409378638143951,
                        -0.13189751701473867
                    ]
                ]
            ],
            "actfuncs": [
                [
                    "relu",
                    "relu",
                    "relu",
                    "relu"
                ],
                [
                    "sigmoid",
                    "sigmoid"
                ]
            ]
        },
        {
            "_info": "NeuralNetwork generated with python-neural-network by rafaelurben",
            "_url": "https://github.com/rafaelurben/python-neural-network",
            "sizes": [
                6,
                4,
                2
            ],
            "biases": [
                [
                    1.139685986408448,
                    -0.9620803690547773,
                    -0.11299808029176622,
                    -0.3700725617205941
                ],
                [
                    -0.43884806672622456,
                    -0.6961291926092488
                ]
            ],
            "weights": [
                [
                    [
                        1.3907172973820585,
                        -1.396131238688559,
                        0.4496146606898452,
                        0.9570218748356747,
                        0.08901729882101711,
                        -0.5124613327513895
                    ],
                    [
                        -0.6088588323262843,
                        0.6531237335458315,
                        -1.1957376748918855,
                        -1.0174468062856095,
                        0.18216950033925305,
                        -0.6063868716220323
                    ],
                    [
                        0.9140464839363287,
                        0.8034430816364403,
                        0.4603355763893831,
                        -1.1729797521943346,
                        0.6677013933286905,
                        -1.4440507629830373
                    ],
                    [
                        0.788587278169995,
                        0.1567831170688594,
                        -0.22314320411315786,
                        -0.13874232218108695,
                        0.2561269329942245,
                        -0.42242932892973534
                    ]
                ],
                [
                    [
                        0.8593893330480052,
                        -0.5610762029544023,
                        -0.049816527514249975,
                        1.0592425083899275
                    ],
                    [
                        0.3896505330648618,
                        0.6862711008880433,
                        -0.6679561784297987,
                        0.41618393611185556
                    ]
                ]
            ],
            "actfuncs": [
                [
                    "relu",
                    "relu",
                    "relu",
                    "relu"
                ],
                [
                    "sigmoid",
                    "sigmoid"
                ]
            ]
        },
        {
            "_info": "NeuralNetwork generated with python-neural-network by rafaelurben",
            "_url": "https://github.com/rafaelurben/python-neural-network",
            "sizes": [
                6,
                4,
                2
            ],
            "biases": [
                [
                    1.5670247928697694,
                    -1.2859390143633123,
                    -0.38866849327454167,
                    -0.4756956294893981
                ],
                [
                    -0.4887694436813114,
                    -0.9897543667887229
                ]
            ],
            "weights": [
                [
                    [
                        1.261517874989181,
                        -1.2018302622878414,
                        0.6104149983922802,
                        0.7838011059193739,
                        0.08901729882101711,
                        -0.5124613327513895
                    ],
                    [
                        -0.6327304419667563,
                        0.4020690770753517,
                        -0.9679902433682996,
                        -0.8364489856453647,
                        0.40178097268971397,
                        -0.6975519620903976
                    ],
                    [
                        0.5483554704476774,
                        1.0179853067522329,
                        0.6596711029235796,
                        -1.1729797521943346,
                        0.5847305475536749,
                        -1.4440507629830373
                    ],
                    [
                        0.788587278169995,
                        0.1567831170688594,
                        -0.48385900311457664,
                        -0.05139399522107463,
                        0.27109143446703177,
                        -0.6308144226444709
                    ]
                ],
                [
                    [
                        0.6044199799567385,
                        -0.4818643421030045,
                        0.05094092034075792,
                        1.2461459656363252
                    ],
                    [
                        0.6531018851176696,
                        0.7588414733523317,
                        -0.8567682730944444,
                        0.15471995380877146
                    ]
                ]
            ],
            "actfuncs": [
                [
                    "relu",
                    "relu",
                    "relu",
                    "relu"
                ],
                [
                    "sigmoid",
                    "sigmoid"
                ]
            ]
        },
        {
            "_info": "NeuralNetwork generated with python-neural-network by rafaelurben",
            "_url": "https://github.com/rafaelurben/python-neural-network",
            "sizes": [
                6,
                4,
                2
            ],
            "biases": [
                [
                    1.369905714876798,
                    -0.9878708545329579,
                    -0.25564327472851267,
                    -0.3883710009339483
                ],
                [
                    -0.6724745795740226,
                    -0.7117490914757334
                ]
            ],
            "weights": [
                [
                    [
                        1.261517874989181,
                        -1.2018302622878414,
                        0.4496146606898452,
                        0.5674085196258558,
                        0.16934477378694082,
                        -0.5124613327513895
                    ],
                    [
                        -0.6602976797292894,
                        0.6531237335458315,
                        -1.306212970519342,
                        -0.8956283710182715,
                        0.6516032587463649,
                        -0.7056799656010311
                    ],
                    [
                        0.3691467129964298,
                        1.006714783934693,
                        0.7566168668892848,
                        -0.9859137378656592,
                        0.707405728422454,
                        -1.5264921136379592
                    ],
                    [
                        0.788587278169995,
                        0.165988820571081,
                        -0.3946829612800115,
                        0.0037744748944806006,
                        0.04240851084300157,
                        -0.411153774873128
                    ]
                ],
                [
                    [
                        0.8593893330480052,
                        -0.2852953884340815,
                        0.043231364118549054,
                        1.0216888058925346
                    ],
                    [
                        0.6531018851176696,
                        0.7730703507171421,
                        -0.5533723702604013,
                        0.26513776595667615
                    ]
                ]
            ],
            "actfuncs": [
                [
                    "relu",
                    "relu",
                    "relu",
                    "relu"
                ],
                [
                    "sigmoid",
                    "sigmoid"
                ]
            ]
        },
        {
            "_info": "NeuralNetwork generated with python-neural-network by rafaelurben",
            "_url": "https://github.com/rafaelurben/python-neural-network",
            "sizes": [
                6,
                4,
                2
            ],
            "biases": [
                [
                    1.400955919199379,
                    -1.3571579846901372,
                    -0.3041298462764909,
                    -0.2461029111100874
                ],
                [
                    -0.21582808148426216,
                    -0.6378938856195293
                ]
            ],
            "weights": [
                [
                    [
                        1.142761802826337,
                        -0.7661340864240502,
                        0.46860771688324204,
                        0.9114350454749193,
                        -0.018576208394216864,
                        -0.939539720651529
                    ],
                    [
                        -0.7303321443850703,
                        0.6402132890825403,
                        -1.489245046322785,
                        -0.6828256414678193,
                        0.547519276222022,
                        -0.8465656655603455
                    ],
                    [
                        0.42762715011660885,
                        0.8237802590223342,
                        0.6644080425053479,
                        -1.0258700382194952,
                        0.35465939720533074,
                        -1.2104999952191433
                    ],
                    [
                        0.7493902040189082,
                        0.32556024481756474,
                        -0.5793431623394871,
                        -0.12595324004010766,
                        0.18985627862602336,
                        -0.6457184848339079
                    ]
                ],
                [
                    [
                        0.8674280781803596,
                        -0.5627066687154574,
                        0.04785227706670747,
                        0.8413315508821394
                    ],
                    [
                        0.6531018851176696,
                        0.33133489868929156,
                        -0.5647578101673443,
                        0.15471995380877146
                    ]
                ]
            ],
            "actfuncs": [
                [
                    "relu",
                    "relu",
                    "relu",
                    "relu"
                ],
                [
                    "sigmoid",
                    "sigmoid"
                ]
            ]
        },
        {
            "_info": "NeuralNetwork generated with python-neural-network by rafaelurben",
            "_url": "https://github.com/rafaelurben/python-neural-network",
            "sizes": [
                6,
                4,
                2
            ],
            "biases": [
                [
                    1.400955919199379,
                    -1.1355600298067516,
                    -0.40492972409119543,
                    -0.4046467238677357
                ],
                [
                    -0.2528017438422241,
                    -0.7244527827508686
                ]
            ],
            "weights": [
                [
                    [
                        1.0273883189858266,
                        -0.9371138317607715,
                        0.46860771688324204,
                        0.4999819957298635,
                        -0.23976596475866996,
                        -0.7492373096961216
                    ],
                    [
                        -0.5296113515199687,
                        0.3093278327119833,
                        -1.2613096116314177,
                        -0.8119968166390266,
                        0.5311874055688365,
                        -0.8044317828882224
                    ],
                    [
                        0.4217762136005273,
                        0.8034430816364403,
                        0.6798075720742576,
                        -1.0258700382194952,
                        0.3098668004022724,
                        -1.374366901238125
                    ],
                    [
                        0.3273001076635392,
                        0.0702720103321699,
                        -0.4984007558227483,
                        -0.4217639872100164,
                        -0.031937992391570635,
                        -0.49113727494554
                    ]
                ],
                [
                    [
                        1.0442195285676803,
                        -0.07425382743384801,
                        0.12014856202446217,
                        0.7439731177260609
                    ],
                    [
                        0.8569072526306256,
                        0.33133489868929156,
                        -0.6291991136789327,
                        0.15471995380877146
                    ]
                ]
            ],
            "actfuncs": [
                [
                    "relu",
                    "relu",
                    "relu",
                    "relu"
                ],
                [
                    "sigmoid",
                    "sigmoid"
                ]
            ]
        },
        {
            "_info": "NeuralNetwork generated with python-neural-network by rafaelurben",
            "_url": "https://github.com/rafaelurben/python-neural-network",
            "sizes": [
                6,
                4,
                2
            ],
            "biases": [
                [
                    1.400955919199379,
                    -1.3299554895941168,
                    -0.5050824650251511,
                    -0.2708889657942529
                ],
                [
                    -0.4497515676208431,
                    -0.6378938856195293
                ]
            ],
            "weights": [
                [
                    [
                        0.9576795267767144,
                        -0.8257487943339816,
                        0.3542365160465946,
                        0.7838011059193739,
                        -0.018576208394216864,
                        -0.8801607079813232
                    ],
                    [
                        -0.8970158259273757,
                        0.4516594007435599,
                        -1.503269250589423,
                        -0.6828256414678193,
                        0.5311874055688365,
                        -0.8044317828882224
                    ],
                    [
                        0.6266846215368796,
                        0.8034430816364403,
                        0.7857790599996011,
                        -0.7461724182212024,
                        0.5847305475536749,
                        -1.374366901238125
                    ],
                    [
                        0.38884789632540334,
                        0.2379481833339735,
                        -0.21956063329911082,
                        -0.1357207873332435,
                        0.27141938580170466,
                        -0.49113727494554
                    ]
                ],
                [
                    [
                        1.0769808744916207,
                        -0.2981619515738544,
                        -0.013177738437267439,
                        0.8960795467849454
                    ],
                    [
                        0.6802150962267326,
                        0.1567280887714217,
                        -0.49266782770996864,
                        0.15471995380877146
                    ]
                ]
            ],
            "actfuncs": [
                [
                    "relu",
                    "relu",
                    "relu",
                    "relu"
                ],
                [
                    "sigmoid",
                    "sigmoid"
                ]
            ]
        },
        {
            "_info": "NeuralNetwork generated with python-neural-network by rafaelurben",
            "_url": "https://github.com/rafaelurben/python-neural-network",
            "sizes": [
                6,
                4,
                2
            ],
            "biases": [
                [
                    1.4327820554109538,
                    -0.09332550558159664,
                    -0.3158563580603033,
                    0.16451654731234017
                ],
                [
                    -0.5992913630578238,
                    -0.7026933526936363
                ]
            ],
            "weights": [
                [
                    [
                        0.47965003488939034,
                        -0.7744229368817881,
                        0.5124518246567122,
                        0.9773315016042448,
                        -0.36040603205152394,
                        -0.26998473901113185
                    ],
                    [
                        0.6303579534269734,
                        0.9380074684183874,
                        -0.9438990909891058,
                        -0.30178173457924273,
                        0.4351631410006605,
                        -1.4224762185365967
                    ],
                    [
                        0.41708535553377923,
                        0.9287627262051458,
                        0.34357267242663003,
                        -0.5261396499677262,
                        0.30929239632022065,
                        -1.3816141379390503
                    ],
                    [
                        0.05188658725121123,
                        0.42791826070453876,
                        -0.20921134493465038,
                        -0.36637759429545835,
                        -0.04015248470977856,
                        -0.8497756558030125
                    ]
                ],
                [
                    [
                        1.2443710645581707,
                        0.0674878765972789,
                        0.03165991312160377,
                        0.33476221605132755
                    ],
                    [
                        0.6601200231730495,
                        0.29978380124383064,
                        -0.9205000029255923,
                        -0.07091320659282518
                    ]
                ]
            ],
            "actfuncs": [
                [
                    "relu",
                    "relu",
                    "relu",
                    "relu"
                ],
                [
                    "sigmoid",
                    "sigmoid"
                ]
            ]
        },
        {
            "_info": "NeuralNetwork generated with python-neural-network by rafaelurben",
            "_url": "https://github.com/rafaelurben/python-neural-network",
            "sizes": [
                6,
                4,
                2
            ],
            "biases": [
                [
                    1.1815519271937154,
                    -0.6538878832035557,
                    -0.5834725260272988,
                    0.5889498152344677
                ],
                [
                    -0.5152116549694494,
                    -0.8987987511666362
                ]
            ],
            "weights": [
                [
                    [
                        0.4216969583107551,
                        -1.0034337036208836,
                        0.5130344363803738,
                        0.7600330540830296,
                        -0.06206449514727269,
                        -0.429045781405307
                    ],
                    [
                        0.532853459511861,
                        1.2065913927140115,
                        -0.9379091233550048,
                        -0.2072477354942848,
                        0.44192004242691324,
                        -1.1357103262713002
                    ],
                    [
                        0.13184912662130918,
                        0.9162515851846023,
                        0.40068797144029633,
                        -0.34665185851418645,
                        0.3258874806851252,
                        -0.848366438208431
                    ],
                    [
                        -0.013445623731185186,
                        0.2700596257197785,
                        -0.6887729612336211,
                        -0.4644918058085824,
                        0.3483633514946336,
                        -0.9378536686048087
                    ]
                ],
                [
                    [
                        1.0118020343171539,
                        -0.00959488974258299,
                        0.09652470133012298,
                        0.3945280668314872
                    ],
                    [
                        0.6585208625116254,
                        0.2954717798616776,
                        -0.5552293693176267,
                        -0.14681182304318596
                    ]
                ]
            ],
            "actfuncs": [
                [
                    "relu",
                    "relu",
                    "relu",
                    "relu"
                ],
                [
                    "sigmoid",
                    "sigmoid"
                ]
            ]
        },
        {
            "_info": "NeuralNetwork generated with python-neural-network by rafaelurben",
            "_url": "https://github.com/rafaelurben/python-neural-network",
            "sizes": [
                6,
                4,
                2
            ],
            "biases": [
                [
                    1.8236595407679626,
                    -1.4882838573802908,
                    -0.33292095375828556,
                    -0.9306153011839178
                ],
                [
                    -0.14084650624811693,
                    -0.45045956018316613
                ]
            ],
            "weights": [
                [
                    [
                        1.0632349163117158,
                        -0.9371138317607715,
                        0.7971311850117411,
                        0.5866457219176152,
                        -0.4015276224634785,
                        -0.3131094726614105
                    ],
                    [
                        -0.2424994265001737,
                        0.5457312802938977,
                        -1.1547660649506195,
                        -0.859865363869122,
                        0.7471032605455776,
                        -1.145694871411764
                    ],
                    [
                        0.14694369882730973,
                        0.8034430816364403,
                        0.6435915759162647,
                        -0.8997281727506253,
                        0.6855126006344525,
                        -1.2823315542899651
                    ],
                    [
                        -0.13383904986259132,
                        0.05848044267430319,
                        -0.4778754191418685,
                        -0.38494110626664096,
                        -0.05693290734204859,
                        -0.5539110844162314
                    ]
                ],
                [
                    [
                        0.8486326019312913,
                        0.01513044537919217,
                        0.03379881381783295,
                        1.2086415382844755
                    ],
                    [
                        0.5066164221820004,
                        0.3211788089520736,
                        -0.9214353954286895,
                        0.1679195977020433
                    ]
                ]
            ],
            "actfuncs": [
                [
                    "relu",
                    "relu",
                    "relu",
                    "relu"
                ],
                [
                    "sigmoid",
                    "sigmoid"
                ]
            ]
        },
        {
            "_info": "NeuralNetwork generated with python-neural-network by rafaelurben",
            "_url": "https://github.com/rafaelurben/python-neural-network",
            "sizes": [
                6,
                4,
                2
            ],
            "biases": [
                [
                    1.5087109027186492,
                    -1.0054262326718963,
                    -0.5162757915261891,
                    -0.3979197222298671
                ],
                [
                    -0.24906030312969238,
                    -0.5486634862332516
                ]
            ],
            "weights": [
                [
                    [
                        1.0861337155727053,
                        -0.9713599189826148,
                        0.6132735621256741,
                        0.4208242535870311,
                        -0.2678489390279896,
                        -0.22466319818598773
                    ],
                    [
                        -0.39972484173043227,
                        0.25379149998393047,
                        -0.9320335590786771,
                        -0.7658475330476677,
                        0.7471032605455776,
                        -1.1638922445059054
                    ],
                    [
                        0.42762715011660885,
                        0.5719967355270081,
                        0.6793936903390057,
                        -1.0499929818627138,
                        0.2756288543231261,
                        -1.374366901238125
                    ],
                    [
                        0.046508185386226863,
                        0.04971804532170809,
                        -0.20225505538553545,
                        -0.22696391898150153,
                        -0.3365612468259212,
                        -0.6950174783173855
                    ]
                ],
                [
                    [
                        1.09486572041782,
                        -0.2618566751641829,
                        0.12014856202446217,
                        0.9229974757536443
                    ],
                    [
                        0.6472336647526098,
                        0.05832786094207981,
                        -1.1764122040601654,
                        -0.08314470836729104
                    ]
                ]
            ],
            "actfuncs": [
                [
                    "relu",
                    "relu",
                    "relu",
                    "relu"
                ],
                [
                    "sigmoid",
                    "sigmoid"
                ]
            ]
        },
        {
            "_info": "NeuralNetwork generated with python-neural-network by rafaelurben",
            "_url": "https://github.com/rafaelurben/python-neural-network",
            "sizes": [
                6,
                4,
                2
            ],
            "biases": [
                [
                    1.1815519271937154,
                    -0.10232968850549229,
                    -0.29836571096002723,
                    0.5192762613089523
                ],
                [
                    -0.47718279511947764,
                    -0.9150190745046406
                ]
            ],
            "weights": [
                [
                    [
                        0.5094871896823969,
                        -0.7366300251920963,
                        0.543744183498304,
                        0.8491233282493645,
                        -0.3824525901272065,
                        -0.41606742219788817
                    ],
                    [
                        0.4691366683978696,
                        1.1338258730866746,
                        -1.226947597153383,
                        0.15721586707913945,
                        0.7004224477594518,
                        -1.2004682945540088
                    ],
                    [
                        0.13184912662130918,
                        0.890513014245093,
                        0.34357267242663003,
                        -0.45584420184895214,
                        0.1727790841576915,
                        -1.2365756588682708
                    ],
                    [
                        -0.013445623731185186,
                        0.05842772080667147,
                        -0.6013852408383531,
                        -0.3214504311961671,
                        0.20864399272550627,
                        -1.0802236126669464
                    ]
                ],
                [
                    [
                        1.0679442804499306,
                        0.27302366447078397,
                        -0.10469975229449835,
                        0.33476221605132755
                    ],
                    [
                        0.5842973508577304,
                        0.24567044846825514,
                        -0.9233415069909416,
                        -0.2270602046289899
                    ]
                ]
            ],
            "actfuncs": [
                [
                    "relu",
                    "relu",
                    "relu",
                    "relu"
                ],
                [
                    "sigmoid",
                    "sigmoid"
                ]
            ]
        },
        {
            "_info": "NeuralNetwork generated with python-neural-network by rafaelurben",
            "_url": "https://github.com/rafaelurben/python-neural-network",
            "sizes": [
                6,
                4,
                2
            ],
            "biases": [
                [
                    1.400955919199379,
                    -1.368433478783157,
                    -0.4603115678806178,
                    -0.29411219896453644
                ],
                [
                    -0.13575068042355512,
                    -0.6378938856195293
                ]
            ],
            "weights": [
                [
                    [
                        0.9576795267767144,
                        -0.9905375557022287,
                        0.5562234853182251,
                        0.7838011059193739,
                        0.2613716244614381,
                        -0.6774879303744037
                    ],
                    [
                        -0.8761839011268959,
                        0.3694934131647221,
                        -1.4573799805713858,
                        -0.7697681381873633,
                        0.2905314770287863,
                        -0.8044317828882224
                    ],
                    [
                        0.6519787107544917,
                        0.8034430816364403,
                        0.8480851062984697,
                        -1.0258700382194952,
                        0.5847305475536749,
                        -1.3463410726914722
                    ],
                    [
                        0.6540834505913863,
                        0.2289971314676401,
                        -0.3347381208022471,
                        0.14719631827700513,
                        -0.23568237127577346,
                        -0.6202037279540216
                    ]
                ],
                [
                    [
                        0.8070799175860668,
                        -0.11761628194400375,
                        0.007170137196778947,
                        0.6238867349498747
                    ],
                    [
                        0.6531018851176696,
                        0.5437230516997358,
                        -0.8582446323780513,
                        0.15471995380877146
                    ]
                ]
            ],
            "actfuncs": [
                [
                    "relu",
                    "relu",
                    "relu",
                    "relu"
                ],
                [
                    "sigmoid",
                    "sigmoid"
                ]
            ]
        },
        {
            "_info": "NeuralNetwork generated with python-neural-network by rafaelurben",
            "_url": "https://github.com/rafaelurben/python-neural-network",
            "sizes": [
                6,
                4,
                2
            ],
            "biases": [
                [
                    1.400955919199379,
                    -1.1292976221883322,
                    -0.5628254625215716,
                    -0.5311131901843735
                ],
                [
                    -0.4017069551826683,
                    -0.8995444280284435
                ]
            ],
            "weights": [
                [
                    [
                        0.9576795267767144,
                        -1.1715675466440487,
                        0.46860771688324204,
                        0.7694336310527514,
                        -0.018576208394216864,
                        -0.46868302275550183
                    ],
                    [
                        -0.34716043322876045,
                        0.6666746941026207,
                        -1.1439617273495015,
                        -0.6969003268540903,
                        0.5311874055688365,
                        -0.8044317828882224
                    ],
                    [
                        0.42762715011660885,
                        1.0052187032134772,
                        0.6112299068092601,
                        -1.1496240260961117,
                        0.5847305475536749,
                        -1.6011228740244925
                    ],
                    [
                        0.6940407736211593,
                        0.23141340812611144,
                        -0.5459471295621146,
