{
    "highscore": 271.2246224453446,
    "networks": [
        {
            "_info": "NeuralNetwork generated with python-neural-network by rafaelurben",
            "_url": "https://github.com/rafaelurben/python-neural-network",
            "sizes": [
                6,
                4,
                2
            ],
            "biases": [
                [
                    0.6046693500793169,
                    -0.3921727882348463,
                    -0.6402281411690237,
                    0.10516933585889815
                ],
                [
                    0.7982324818905251,
                    -0.30491870466026527
                ]
            ],
            "weights": [
                [
                    [
                        -0.9652273548794879,
                        0.16995304438316178,
                        -0.6191167175013585,
                        1.4019176384396552,
                        -0.08613803721901696,
                        -0.20553407689425748
                    ],
                    [
                        0.07099068954046368,
                        0.33994945313662767,
                        -0.46276296159170455,
                        -0.1436364306249791,
                        0.7857127244022002,
                        0.3532255172577598
                    ],
                    [
                        -0.7226167966199691,
                        -1.0147294727096026,
                        0.6396721717596414,
                        0.38181748728709064,
                        1.2427639273825695,
                        -0.8350440510597618
                    ],
                    [
                        -0.7235205741865522,
                        0.9162472075437581,
                        -0.22074560894023193,
                        -0.3151358571354431,
                        0.6123891001206744,
                        0.1832853757101549
                    ]
                ],
                [
                    [
                        0.32446879073625384,
                        0.3706983739245562,
                        1.111487904765306,
                        0.47011383607463725
                    ],
                    [
                        0.5122692249441663,
                        -0.3663079426952643,
                        0.40554682714410833,
                        -0.33913528879145555
                    ]
                ]
            ],
            "actfuncs": [
                [
                    "relu",
                    "relu",
                    "relu",
                    "relu"
                ],
                [
                    "sigmoid",
                    "sigmoid"
                ]
            ]
        },
        {
            "_info": "NeuralNetwork generated with python-neural-network by rafaelurben",
            "_url": "https://github.com/rafaelurben/python-neural-network",
            "sizes": [
                6,
                4,
                2
            ],
            "biases": [
                [
                    0.6046693500793169,
                    -0.3921727882348463,
                    -0.6402281411690237,
                    0.10516933585889815
                ],
                [
                    0.7977445789880253,
                    -0.30709181524000895
                ]
            ],
            "weights": [
                [
                    [
                        -0.9652273548794879,
                        0.16995304438316178,
                        -0.6203800398115755,
                        1.401265612354943,
                        -0.08520583385418774,
                        -0.20553407689425748
                    ],
                    [
                        0.07099068954046368,
                        0.33994945313662767,
                        -0.46276296159170455,
                        -0.1412439197313064,
                        0.7857127244022002,
                        0.3532255172577598
                    ],
                    [
                        -0.7226167966199691,
                        -1.0147294727096026,
                        0.6396721717596414,
                        0.3797927235023868,
                        1.2427639273825695,
                        -0.8326057269617068
                    ],
                    [
                        -0.7235205741865522,
                        0.9161078426475829,
                        -0.22074560894023193,
                        -0.3136050113311773,
                        0.6148363971931726,
                        0.1832853757101549
                    ]
                ],
                [
                    [
                        0.3261622831322964,
                        0.3706983739245562,
                        1.111487904765306,
                        0.4676964946733107
                    ],
                    [
                        0.5122692249441663,
                        -0.3663079426952643,
                        0.40554682714410833,
                        -0.33913528879145555
                    ]
                ]
            ],
            "actfuncs": [
                [
                    "relu",
                    "relu",
                    "relu",
                    "relu"
                ],
                [
                    "sigmoid",
                    "sigmoid"
                ]
            ]
        },
        {
            "_info": "NeuralNetwork generated with python-neural-network by rafaelurben",
            "_url": "https://github.com/rafaelurben/python-neural-network",
            "sizes": [
                6,
                4,
                2
            ],
            "biases": [
                [
                    0.6051920239338987,
                    -0.3921727882348463,
                    -0.6402281411690237,
                    0.10406366973441014
                ],
                [
                    0.7982324818905251,
                    -0.307173036030281
                ]
            ],
            "weights": [
                [
                    [
                        -0.9652273548794879,
                        0.16995304438316178,
                        -0.6191167175013585,
                        1.4019176384396552,
                        -0.08613803721901696,
                        -0.20553407689425748
                    ],
                    [
                        0.07099068954046368,
                        0.33994945313662767,
                        -0.46276296159170455,
                        -0.14494867687403395,
                        0.7857127244022002,
                        0.3532255172577598
                    ],
                    [
                        -0.7226167966199691,
                        -1.0157363278734945,
                        0.6387957459042568,
                        0.38181748728709064,
                        1.2427639273825695,
                        -0.8350440510597618
                    ],
                    [
                        -0.7235205741865522,
                        0.9162472075437581,
                        -0.22074560894023193,
                        -0.3151358571354431,
                        0.6111247567790572,
                        0.1832853757101549
                    ]
                ],
                [
                    [
                        0.3243727381852167,
                        0.3706983739245562,
                        1.111487904765306,
                        0.47011383607463725
                    ],
                    [
                        0.5122692249441663,
                        -0.36663598461658864,
                        0.40554682714410833,
                        -0.33913528879145555
                    ]
                ]
            ],
            "actfuncs": [
                [
                    "relu",
                    "relu",
                    "relu",
                    "relu"
                ],
                [
                    "sigmoid",
                    "sigmoid"
                ]
            ]
        },
        {
            "_info": "NeuralNetwork generated with python-neural-network by rafaelurben",
            "_url": "https://github.com/rafaelurben/python-neural-network",
            "sizes": [
                6,
                4,
                2
            ],
            "biases": [
                [
                    0.6046693500793169,
                    -0.3916759878254479,
                    -0.6425082504144957,
                    0.10516933585889815
                ],
                [
                    0.7982324818905251,
                    -0.30491870466026527
                ]
            ],
            "weights": [
                [
                    [
                        -0.9652273548794879,
                        0.16995304438316178,
                        -0.6191167175013585,
                        1.3997119050846212,
                        -0.08613803721901696,
                        -0.20553407689425748
                    ],
                    [
                        0.07099068954046368,
                        0.33994945313662767,
                        -0.46276296159170455,
                        -0.1436364306249791,
                        0.7857127244022002,
                        0.3532255172577598
                    ],
                    [
                        -0.7226167966199691,
                        -1.0147294727096026,
                        0.6396721717596414,
                        0.38181748728709064,
                        1.2427639273825695,
                        -0.8350440510597618
                    ],
                    [
                        -0.7235205741865522,
                        0.9162472075437581,
                        -0.22306804633207275,
                        -0.3151358571354431,
                        0.6123891001206744,
                        0.1832853757101549
                    ]
                ],
                [
                    [
                        0.3243170308752084,
                        0.3706983739245562,
                        1.1098819672463738,
                        0.47011383607463725
                    ],
                    [
                        0.5100958293874578,
                        -0.3663079426952643,
                        0.4036452022959999,
                        -0.33913528879145555
                    ]
                ]
            ],
            "actfuncs": [
                [
                    "relu",
                    "relu",
                    "relu",
                    "relu"
                ],
                [
                    "sigmoid",
                    "sigmoid"
                ]
            ]
        },
        {
            "_info": "NeuralNetwork generated with python-neural-network by rafaelurben",
            "_url": "https://github.com/rafaelurben/python-neural-network",
            "sizes": [
                6,
                4,
                2
            ],
            "biases": [
                [
                    0.6034304564417445,
                    -0.3921727882348463,
                    -0.6416177031903361,
                    0.10516933585889815
                ],
                [
                    0.7982324818905251,
                    -0.30491870466026527
                ]
            ],
            "weights": [
                [
                    [
                        -0.9670539880783225,
                        0.16780229542358935,
                        -0.6191167175013585,
                        1.4033798333053886,
                        -0.0870748676620449,
                        -0.20701669777584847
                    ],
                    [
                        0.07099068954046368,
                        0.33994945313662767,
                        -0.46276296159170455,
                        -0.14125496881047842,
                        0.7857127244022002,
                        0.3532255172577598
                    ],
                    [
                        -0.7205541413449335,
                        -1.0147294727096026,
                        0.6396721717596414,
                        0.38181748728709064,
                        1.2427639273825695,
                        -0.8350440510597618
                    ],
                    [
                        -0.7235205741865522,
                        0.9143699821817062,
                        -0.22074560894023193,
                        -0.31323251264415275,
                        0.6113098064516356,
                        0.1832853757101549
                    ]
                ],
                [
                    [
                        0.3229248228435216,
                        0.37177536737836814,
                        1.111487904765306,
                        0.47011383607463725
                    ],
                    [
                        0.5122692249441663,
                        -0.3663079426952643,
                        0.40554682714410833,
                        -0.335902628864539
                    ]
                ]
            ],
            "actfuncs": [
                [
                    "relu",
                    "relu",
                    "relu",
                    "relu"
                ],
                [
                    "sigmoid",
                    "sigmoid"
                ]
            ]
        },
        {
            "_info": "NeuralNetwork generated with python-neural-network by rafaelurben",
            "_url": "https://github.com/rafaelurben/python-neural-network",
            "sizes": [
                6,
                4,
                2
            ],
            "biases": [
                [
                    0.6040881233990144,
                    -0.3921727882348463,
                    -0.6379642396287303,
                    0.10516933585889815
                ],
                [
                    0.7982324818905251,
                    -0.30491870466026527
                ]
            ],
            "weights": [
                [
                    [
                        -0.9644448191481824,
                        0.1701735462995016,
                        -0.6191167175013585,
                        1.4019176384396552,
                        -0.08613803721901696,
                        -0.20553407689425748
                    ],
                    [
                        0.07308542510377554,
                        0.33994945313662767,
                        -0.4645600195374498,
                        -0.1436364306249791,
                        0.7857127244022002,
                        0.3532255172577598
                    ],
                    [
                        -0.7226167966199691,
                        -1.0147294727096026,
                        0.6396721717596414,
                        0.38181748728709064,
                        1.2427639273825695,
                        -0.8350440510597618
                    ],
                    [
                        -0.7239444574101991,
                        0.9162472075437581,
                        -0.22074560894023193,
                        -0.3151358571354431,
                        0.6123891001206744,
                        0.18316146679048498
                    ]
                ],
                [
                    [
                        0.32577853626996384,
                        0.369529748570331,
                        1.111487904765306,
                        0.47011383607463725
                    ],
                    [
                        0.5142134289230447,
                        -0.3652010060562387,
                        0.40554682714410833,
                        -0.33913528879145555
                    ]
                ]
            ],
            "actfuncs": [
                [
                    "relu",
                    "relu",
                    "relu",
                    "relu"
                ],
                [
                    "sigmoid",
                    "sigmoid"
                ]
            ]
        },
        {
            "_info": "NeuralNetwork generated with python-neural-network by rafaelurben",
            "_url": "https://github.com/rafaelurben/python-neural-network",
            "sizes": [
                6,
                4,
                2
            ],
            "biases": [
                [
                    0.6046693500793169,
                    -0.39145351358139824,
                    -0.6402281411690237,
                    0.10337723956642592
                ],
                [
                    0.7977445789880253,
                    -0.30709181524000895
                ]
            ],
            "weights": [
                [
                    [
                        -0.9660925434004293,
                        0.16995304438316178,
                        -0.6216868943939908,
                        1.401265612354943,
                        -0.08468190295007848,
                        -0.2068305660042064
                    ],
                    [
                        0.07099068954046368,
                        0.342293260461788,
                        -0.46138147941601604,
                        -0.1412439197313064,
                        0.7857127244022002,
                        0.35576684094127997
                    ],
                    [
                        -0.7226167966199691,
                        -1.016478756476811,
                        0.6396721717596414,
                        0.37810483291849634,
                        1.2427639273825695,
                        -0.8326057269617068
                    ],
                    [
                        -0.7235205741865522,
                        0.9169020308970148,
                        -0.22204710054056667,
                        -0.3136050113311773,
                        0.6148363971931726,
                        0.1832853757101549
                    ]
                ],
                [
                    [
                        0.3277026346534792,
                        0.3706983739245562,
                        1.111487904765306,
                        0.466879883200477
                    ],
                    [
                        0.5122692249441663,
                        -0.36549830656120114,
                        0.40554682714410833,
                        -0.33913528879145555
                    ]
                ]
            ],
            "actfuncs": [
                [
                    "relu",
                    "relu",
                    "relu",
                    "relu"
                ],
                [
                    "sigmoid",
                    "sigmoid"
                ]
            ]
        },
        {
            "_info": "NeuralNetwork generated with python-neural-network by rafaelurben",
            "_url": "https://github.com/rafaelurben/python-neural-network",
            "sizes": [
                6,
                4,
                2
            ],
            "biases": [
                [
                    0.6046693500793169,
                    -0.3911371564777617,
                    -0.6402281411690237,
                    0.10272829582072861
                ],
                [
                    0.7982324818905251,
                    -0.30491870466026527
                ]
            ],
            "weights": [
                [
                    [
                        -0.9639597899855167,
                        0.16995304438316178,
                        -0.6191167175013585,
                        1.4019176384396552,
                        -0.08613803721901696,
                        -0.20553407689425748
                    ],
                    [
                        0.07099068954046368,
                        0.33994945313662767,
                        -0.46276296159170455,
                        -0.1436364306249791,
                        0.7857127244022002,
                        0.3532255172577598
                    ],
                    [
                        -0.7246648211356307,
                        -1.0166207028197056,
                        0.6396721717596414,
                        0.38181748728709064,
                        1.2402697966252754,
                        -0.8371584055618446
                    ],
                    [
                        -0.7235205741865522,
                        0.9158347383569011,
                        -0.22252206856807907,
                        -0.3151358571354431,
                        0.6123891001206744,
                        0.1832853757101549
                    ]
                ],
                [
                    [
                        0.32446879073625384,
                        0.37284450508878364,
                        1.111487904765306,
                        0.46875798544442404
                    ],
                    [
                        0.5122692249441663,
                        -0.3663079426952643,
                        0.4061987186856954,
                        -0.33913528879145555
                    ]
                ]
            ],
            "actfuncs": [
                [
                    "relu",
                    "relu",
                    "relu",
                    "relu"
                ],
                [
                    "sigmoid",
                    "sigmoid"
                ]
            ]
        },
        {
            "_info": "NeuralNetwork generated with python-neural-network by rafaelurben",
            "_url": "https://github.com/rafaelurben/python-neural-network",
            "sizes": [
                6,
                4,
                2
            ],
            "biases": [
                [
                    0.6053294682314612,
                    -0.3921727882348463,
                    -0.6402281411690237,
                    0.10516933585889815
                ],
                [
                    0.7982324818905251,
                    -0.30491870466026527
                ]
            ],
            "weights": [
                [
                    [
                        -0.9652273548794879,
                        0.16995304438316178,
                        -0.6186456460043815,
                        1.4019176384396552,
                        -0.08788057809646391,
                        -0.20579419828693085
                    ],
                    [
                        0.07099068954046368,
                        0.3390312700499058,
                        -0.46366972637721565,
                        -0.1436364306249791,
                        0.7857127244022002,
                        0.3532255172577598
                    ],
                    [
                        -0.7212357332467824,
                        -1.0147294727096026,
                        0.6396721717596414,
                        0.38181748728709064,
                        1.2427639273825695,
                        -0.8350440510597618
                    ],
                    [
                        -0.7235205741865522,
                        0.9162472075437581,
                        -0.22074560894023193,
                        -0.3151358571354431,
                        0.6123891001206744,
                        0.18184216983696871
                    ]
                ],
                [
                    [
                        0.32446879073625384,
                        0.3706983739245562,
                        1.1129760737960028,
                        0.47011383607463725
                    ],
                    [
                        0.5122692249441663,
                        -0.3663079426952643,
                        0.40554682714410833,
                        -0.33913528879145555
                    ]
                ]
            ],
            "actfuncs": [
                [
                    "relu",
                    "relu",
                    "relu",
                    "relu"
                ],
                [
                    "sigmoid",
                    "sigmoid"
                ]
            ]
        },
        {
            "_info": "NeuralNetwork generated with python-neural-network by rafaelurben",
            "_url": "https://github.com/rafaelurben/python-neural-network",
            "sizes": [
                6,
                4,
                2
            ],
            "biases": [
                [
                    0.6034304564417445,
                    -0.3921727882348463,
                    -0.6396877856377535,
                    0.10516933585889815
                ],
                [
                    0.7982324818905251,
                    -0.30491870466026527
                ]
            ],
            "weights": [
                [
                    [
                        -0.9670539880783225,
                        0.16780229542358935,
                        -0.6191167175013585,
                        1.4016667577061594,
                        -0.08613803721901696,
                        -0.20789564974187047
                    ],
                    [
                        0.07099068954046368,
                        0.33994945313662767,
                        -0.46276296159170455,
                        -0.1436364306249791,
                        0.7857127244022002,
                        0.3532255172577598
                    ],
                    [
                        -0.7212745312847713,
                        -1.0147294727096026,
                        0.6396721717596414,
                        0.38181748728709064,
                        1.2427639273825695,
                        -0.8350440510597618
                    ],
                    [
                        -0.7235205741865522,
                        0.9143699821817062,
                        -0.22074560894023193,
                        -0.3151358571354431,
                        0.6113098064516356,
                        0.1832853757101549
                    ]
                ],
                [
                    [
                        0.32446879073625384,
                        0.3706983739245562,
                        1.111487904765306,
                        0.47011383607463725
                    ],
                    [
                        0.5122692249441663,
                        -0.3663079426952643,
                        0.40554682714410833,
                        -0.3383349195465236
                    ]
                ]
            ],
            "actfuncs": [
                [
                    "relu",
                    "relu",
                    "relu",
                    "relu"
                ],
                [
                    "sigmoid",
                    "sigmoid"
                ]
            ]
        },
        {
            "_info": "NeuralNetwork generated with python-neural-network by rafaelurben",
            "_url": "https://github.com/rafaelurben/python-neural-network",
            "sizes": [
                6,
                4,
                2
            ],
            "biases": [
                [
                    0.6035414474237365,
                    -0.3921727882348463,
                    -0.6402281411690237,
                    0.10516933585889815
                ],
                [
                    0.7977445789880253,
                    -0.30709181524000895
                ]
            ],
            "weights": [
                [
                    [
                        -0.9652273548794879,
                        0.16995304438316178,
                        -0.6203800398115755,
                        1.401265612354943,
                        -0.08520583385418774,
                        -0.20339006224536407
                    ],
                    [
                        0.07099068954046368,
                        0.33994945313662767,
                        -0.46276296159170455,
                        -0.1412439197313064,
                        0.7857127244022002,
                        0.3527467011706636
                    ],
                    [
                        -0.7236094795881496,
                        -1.013952192006737,
                        0.6409490427542645,
                        0.3797927235023868,
                        1.2426444820988534,
                        -0.8326057269617068
                    ],
                    [
                        -0.7255864939390755,
                        0.9148274346999368,
                        -0.22074560894023193,
                        -0.3114888525394002,
                        0.6148363971931726,
                        0.18546347492881213
                    ]
                ],
                [
                    [
                        0.324576271961541,
                        0.3706983739245562,
                        1.111487904765306,
                        0.46618038631649855
                    ],
                    [
                        0.5122692249441663,
                        -0.3663079426952643,
                        0.40554682714410833,
                        -0.33913528879145555
                    ]
                ]
            ],
            "actfuncs": [
                [
                    "relu",
                    "relu",
                    "relu",
                    "relu"
                ],
                [
                    "sigmoid",
                    "sigmoid"
                ]
            ]
        },
        {
            "_info": "NeuralNetwork generated with python-neural-network by rafaelurben",
            "_url": "https://github.com/rafaelurben/python-neural-network",
            "sizes": [
                6,
                4,
                2
            ],
            "biases": [
                [
                    0.6062237892570355,
                    -0.3921727882348463,
                    -0.6402281411690237,
                    0.10516933585889815
                ],
                [
                    0.7982324818905251,
                    -0.3046936884444969
                ]
            ],
            "weights": [
                [
                    [
                        -0.9652273548794879,
                        0.16995304438316178,
                        -0.6186456460043815,
                        1.4019176384396552,
                        -0.08788057809646391,
                        -0.20579419828693085
                    ],
                    [
                        0.07099068954046368,
                        0.3406749411938259,
                        -0.46366972637721565,
                        -0.1436364306249791,
                        0.7835406217530763,
                        0.3532255172577598
                    ],
                    [
                        -0.720261470655689,
                        -1.0167767341771816,
                        0.6396721717596414,
                        0.38181748728709064,
                        1.2436021161605666,
                        -0.8350440510597618
                    ],
                    [
                        -0.7235205741865522,
                        0.9162472075437581,
                        -0.22074560894023193,
                        -0.3151358571354431,
                        0.613598106383554,
                        0.18184216983696871
                    ]
                ],
                [
                    [
                        0.32407659436489666,
                        0.3706983739245562,
                        1.1129760737960028,
                        0.47011383607463725
                    ],
                    [
                        0.5122692249441663,
                        -0.3663079426952643,
                        0.40554682714410833,
                        -0.33744691079912004
                    ]
                ]
            ],
            "actfuncs": [
                [
                    "relu",
                    "relu",
                    "relu",
                    "relu"
                ],
                [
                    "sigmoid",
                    "sigmoid"
                ]
            ]
        },
        {
            "_info": "NeuralNetwork generated with python-neural-network by rafaelurben",
            "_url": "https://github.com/rafaelurben/python-neural-network",
            "sizes": [
                6,
                4,
                2
            ],
            "biases": [
                [
                    0.6034304564417445,
                    -0.3921727882348463,
                    -0.6396877856377535,
                    0.104334961657535
                ],
                [
                    0.7982324818905251,
                    -0.30491870466026527
                ]
            ],
            "weights": [
                [
                    [
                        -0.9664534924714817,
                        0.16745221547303044,
                        -0.6192772195647838,
                        1.4016667577061594,
                        -0.08613803721901696,
                        -0.20987678359423387
                    ],
                    [
                        0.07099068954046368,
                        0.33994945313662767,
                        -0.46276296159170455,
                        -0.1436364306249791,
                        0.786613481067447,
                        0.3532255172577598
                    ],
                    [
                        -0.7219836527546728,
                        -1.0147294727096026,
                        0.6407092214404063,
                        0.38181748728709064,
                        1.2427639273825695,
                        -0.8351618644489562
                    ],
                    [
                        -0.7235205741865522,
                        0.9143699821817062,
                        -0.22259948208844887,
                        -0.3151358571354431,
                        0.6113098064516356,
                        0.18098627704602752
                    ]
                ],
                [
                    [
                        0.32446879073625384,
                        0.3706983739245562,
                        1.111487904765306,
                        0.47011383607463725
                    ],
                    [
                        0.5122692249441663,
                        -0.36434523713551553,
                        0.4038439566972494,
                        -0.3383349195465236
                    ]
                ]
            ],
            "actfuncs": [
                [
                    "relu",
                    "relu",
                    "relu",
                    "relu"
                ],
                [
                    "sigmoid",
                    "sigmoid"
                ]
            ]
        },
        {
            "_info": "NeuralNetwork generated with python-neural-network by rafaelurben",
            "_url": "https://github.com/rafaelurben/python-neural-network",
            "sizes": [
                6,
                4,
                2
            ],
            "biases": [
                [
                    0.6077533127854527,
                    -0.3905136731755827,
                    -0.6402281411690237,
                    0.10516933585889815
                ],
                [
                    0.7982324818905251,
                    -0.30491870466026527
                ]
            ],
            "weights": [
                [
                    [
                        -0.9652273548794879,
                        0.16891346238953264,
                        -0.6201444441307649,
                        1.4019176384396552,
                        -0.0863737877301519,
                        -0.20579419828693085
                    ],
                    [
                        0.07099068954046368,
                        0.33987787482669396,
                        -0.46366972637721565,
                        -0.1431023073221485,
                        0.7857127244022002,
                        0.3532255172577598
                    ],
                    [
                        -0.7202252195761882,
                        -1.0147294727096026,
                        0.6374372319164522,
                        0.38181748728709064,
                        1.2427639273825695,
                        -0.8350440510597618
                    ],
                    [
                        -0.7235205741865522,
                        0.9138622895805167,
                        -0.22074560894023193,
                        -0.3151358571354431,
                        0.6123891001206744,
                        0.18184216983696871
                    ]
                ],
                [
                    [
                        0.32446879073625384,
                        0.3696562747316361,
                        1.1129760737960028,
                        0.47011383607463725
                    ],
                    [
                        0.5122692249441663,
                        -0.3644030097209201,
                        0.40554682714410833,
                        -0.33913528879145555
                    ]
                ]
            ],
            "actfuncs": [
                [
                    "relu",
                    "relu",
                    "relu",
                    "relu"
                ],
                [
                    "sigmoid",
                    "sigmoid"
                ]
            ]
        },
        {
            "_info": "NeuralNetwork generated with python-neural-network by rafaelurben",
            "_url": "https://github.com/rafaelurben/python-neural-network",
            "sizes": [
                6,
                4,
                2
            ],
            "biases": [
                [
                    0.6053294682314612,
                    -0.3921727882348463,
                    -0.6402281411690237,
                    0.10516933585889815
                ],
                [
                    0.8000128748642475,
                    -0.30491870466026527
                ]
            ],
            "weights": [
                [
                    [
                        -0.9652273548794879,
                        0.16995304438316178,
                        -0.6186456460043815,
                        1.4010788482739145,
                        -0.08788057809646391,
                        -0.20579419828693085
                    ],
                    [
                        0.07099068954046368,
                        0.3390312700499058,
                        -0.46366972637721565,
                        -0.1436364306249791,
                        0.7857127244022002,
                        0.3532255172577598
                    ],
                    [
                        -0.7212357332467824,
                        -1.0147294727096026,
                        0.6396721717596414,
                        0.3825916339856037,
                        1.2427639273825695,
                        -0.8350440510597618
                    ],
                    [
                        -0.7235205741865522,
                        0.9162472075437581,
                        -0.22074560894023193,
                        -0.3151358571354431,
                        0.6123891001206744,
                        0.18184216983696871
                    ]
                ],
                [
                    [
                        0.32446879073625384,
                        0.3706983739245562,
                        1.1129760737960028,
                        0.47254354173566404
                    ],
                    [
                        0.5122692249441663,
                        -0.3663079426952643,
                        0.40554682714410833,
                        -0.3398428361226062
                    ]
                ]
            ],
            "actfuncs": [
                [
                    "relu",
                    "relu",
                    "relu",
                    "relu"
                ],
                [
                    "sigmoid",
                    "sigmoid"
                ]
            ]
        },
        {
            "_info": "NeuralNetwork generated with python-neural-network by rafaelurben",
            "_url": "https://github.com/rafaelurben/python-neural-network",
            "sizes": [
                6,
                4,
                2
            ],
            "biases": [
                [
                    0.6053294682314612,
                    -0.3921727882348463,
                    -0.6400522306121573,
                    0.10438322792465046
                ],
                [
                    0.7982324818905251,
                    -0.30491870466026527
                ]
            ],
            "weights": [
                [
                    [
                        -0.9652273548794879,
                        0.16928822647764089,
                        -0.6186456460043815,
                        1.402379057930917,
                        -0.08788057809646391,
                        -0.20579419828693085
                    ],
                    [
                        0.07242027884103235,
                        0.3390312700499058,
                        -0.46366972637721565,
                        -0.1436364306249791,
                        0.7857127244022002,
                        0.3507506021571518
                    ],
                    [
                        -0.7212357332467824,
                        -1.0138297690746148,
                        0.6396721717596414,
                        0.38181748728709064,
                        1.2427639273825695,
                        -0.8350440510597618
                    ],
                    [
                        -0.7235205741865522,
                        0.9162472075437581,
                        -0.22074560894023193,
                        -0.3151358571354431,
                        0.6123891001206744,
                        0.18184216983696871
                    ]
                ],
                [
                    [
                        0.32446879073625384,
                        0.3706983739245562,
                        1.1129760737960028,
                        0.4690687542094943
                    ],
                    [
                        0.5122692249441663,
                        -0.3663079426952643,
                        0.4054279037416907,
                        -0.33913528879145555
                    ]
                ]
            ],
            "actfuncs": [
                [
                    "relu",
                    "relu",
                    "relu",
                    "relu"
                ],
                [
                    "sigmoid",
                    "sigmoid"
                ]
            ]
        },
        {
            "_info": "NeuralNetwork generated with python-neural-network by rafaelurben",
            "_url": "https://github.com/rafaelurben/python-neural-network",
            "sizes": [
                6,
                4,
                2
            ],
            "biases": [
                [
                    0.6034304564417445,
                    -0.3921727882348463,
                    -0.642195533087432,
                    0.10516933585889815
                ],
                [
                    0.7982324818905251,
                    -0.30491870466026527
                ]
            ],
            "weights": [
                [
                    [
                        -0.9670539880783225,
                        0.16634284501230948,
                        -0.6191167175013585,
                        1.4000460928222227,
                        -0.08613803721901696,
                        -0.2062811175472554
                    ],
                    [
                        0.07099068954046368,
                        0.33994945313662767,
                        -0.46276296159170455,
                        -0.1436364306249791,
                        0.7868193478905136,
                        0.3532073339810709
                    ],
                    [
                        -0.7212745312847713,
                        -1.0147294727096026,
                        0.6396721717596414,
                        0.38060845066768206,
                        1.242991740288196,
                        -0.8350440510597618
                    ],
                    [
                        -0.7235205741865522,
                        0.9143699821817062,
                        -0.22074560894023193,
                        -0.3151358571354431,
                        0.6113098064516356,
                        0.1832853757101549
                    ]
                ],
                [
                    [
                        0.32446879073625384,
                        0.3706983739245562,
                        1.1104517441508255,
                        0.46900764809581674
                    ],
                    [
                        0.5122692249441663,
                        -0.36698951909158756,
                        0.40554682714410833,
                        -0.33644291509264573
                    ]
                ]
            ],
            "actfuncs": [
                [
                    "relu",
                    "relu",
                    "relu",
                    "relu"
                ],
                [
                    "sigmoid",
                    "sigmoid"
                ]
            ]
        },
        {
            "_info": "NeuralNetwork generated with python-neural-network by rafaelurben",
            "_url": "https://github.com/rafaelurben/python-neural-network",
            "sizes": [
                6,
                4,
                2
            ],
            "biases": [
                [
                    0.6046693500793169,
                    -0.3935330046949427,
                    -0.6402281411690237,
                    0.10516933585889815
                ],
                [
                    0.7989909221006677,
                    -0.30491870466026527
                ]
            ],
            "weights": [
                [
                    [
                        -0.967037915541406,
                        0.16995304438316178,
                        -0.6185234284697547,
                        1.4004771977947366,
                        -0.08613803721901696,
                        -0.20553407689425748
                    ],
                    [
                        0.07099068954046368,
                        0.33994945313662767,
                        -0.46276296159170455,
                        -0.1436364306249791,
                        0.7857127244022002,
                        0.3532255172577598
                    ],
                    [
                        -0.7226167966199691,
                        -1.016153802583467,
                        0.6396721717596414,
                        0.3823103094695793,
                        1.2424102166876079,
                        -0.8342669685746705
                    ],
                    [
                        -0.7235205741865522,
                        0.9162472075437581,
                        -0.22074560894023193,
                        -0.3151358571354431,
                        0.6123891001206744,
                        0.1832853757101549
                    ]
                ],
                [
                    [
                        0.325387575612299,
                        0.3714694146581958,
                        1.109931981276829,
                        0.47011383607463725
                    ],
                    [
                        0.5122692249441663,
                        -0.3663079426952643,
                        0.40554682714410833,
                        -0.3376359331217338
                    ]
                ]
            ],
            "actfuncs": [
                [
                    "relu",
                    "relu",
                    "relu",
                    "relu"
                ],
                [
                    "sigmoid",
                    "sigmoid"
                ]
            ]
        },
        {
            "_info": "NeuralNetwork generated with python-neural-network by rafaelurben",
            "_url": "https://github.com/rafaelurben/python-neural-network",
            "sizes": [
                6,
                4,
                2
            ],
            "biases": [
                [
                    0.6046693500793169,
                    -0.3921727882348463,
                    -0.6383589560316982,
                    0.10516933585889815
                ],
                [
                    0.7982324818905251,
                    -0.30491870466026527
                ]
            ],
            "weights": [
                [
                    [
                        -0.9652273548794879,
                        0.16995304438316178,
                        -0.6174780977265483,
                        1.4019176384396552,
                        -0.08613803721901696,
                        -0.20553407689425748
                    ],
                    [
                        0.07099068954046368,
                        0.33994945313662767,
                        -0.46276296159170455,
                        -0.1436364306249791,
                        0.7857127244022002,
                        0.3532255172577598
                    ],
                    [
                        -0.7226167966199691,
                        -1.0147294727096026,
                        0.6411686732822125,
                        0.38181748728709064,
                        1.2427639273825695,
                        -0.8353995832704217
                    ],
                    [
                        -0.7235205741865522,
                        0.9159106063362031,
                        -0.2224610656391369,
                        -0.3151358571354431,
                        0.6123891001206744,
                        0.1832853757101549
                    ]
                ],
                [
                    [
                        0.32446879073625384,
                        0.3706983739245562,
                        1.111487904765306,
                        0.47011383607463725
                    ],
                    [
                        0.5122692249441663,
                        -0.3663079426952643,
                        0.407278193303783,
                        -0.33913528879145555
                    ]
                ]
            ],
            "actfuncs": [
                [
                    "relu",
                    "relu",
                    "relu",
                    "relu"
                ],
                [
                    "sigmoid",
                    "sigmoid"
                ]
            ]
        },
        {
            "_info": "NeuralNetwork generated with python-neural-network by rafaelurben",
            "_url": "https://github.com/rafaelurben/python-neural-network",
            "sizes": [
                6,
                4,
                2
            ],
            "biases": [
                [
                    0.6046693500793169,
                    -0.3921727882348463,
                    -0.6402281411690237,
                    0.10516933585889815
                ],
                [
                    0.7977445789880253,
                    -0.30709181524000895
                ]
            ],
            "weights": [
                [
                    [
                        -0.9652273548794879,
                        0.17000573258010152,
                        -0.6203800398115755,
                        1.401265612354943,
                        -0.08520583385418774,
                        -0.20553407689425748
                    ],
                    [
                        0.07099068954046368,
                        0.3414311647044087,
                        -0.46276296159170455,
                        -0.1412439197313064,
                        0.7857127244022002,
                        0.3532255172577598
                    ],
                    [
                        -0.7204433795474352,
                        -1.0137453060682402,
                        0.6396721717596414,
                        0.3797927235023868,
                        1.2427639273825695,
                        -0.8326057269617068
                    ],
                    [
                        -0.7235205741865522,
                        0.9161078426475829,
                        -0.21975043654554188,
                        -0.3136050113311773,
                        0.6148363971931726,
                        0.18364661932797796
                    ]
                ],
                [
                    [
                        0.3261622831322964,
                        0.3706983739245562,
                        1.111487904765306,
                        0.4676964946733107
                    ],
                    [
                        0.5099412229641886,
                        -0.366238993223288,
                        0.40554682714410833,
                        -0.33913528879145555
                    ]
                ]
            ],
            "actfuncs": [
                [
                    "relu",
                    "relu",
                    "relu",
                    "relu"
                ],
                [
                    "sigmoid",
                    "sigmoid"
                ]
            ]
        },
        {
            "_info": "NeuralNetwork generated with python-neural-network by rafaelurben",
            "_url": "https://github.com/rafaelurben/python-neural-network",
            "sizes": [
                6,
                4,
                2
            ],
            "biases": [
                [
                    0.6077095404470496,
                    -0.3921727882348463,
                    -0.6402281411690237,
                    0.10516933585889815
                ],
                [
                    0.7982324818905251,
                    -0.30404725119498766
                ]
            ],
            "weights": [
                [
                    [
                        -0.9652273548794879,
                        0.16995304438316178,
                        -0.6186456460043815,
                        1.4019176384396552,
                        -0.08788057809646391,
                        -0.20461195334135596
                    ],
                    [
                        0.07099068954046368,
                        0.3390312700499058,
                        -0.46366972637721565,
                        -0.1436364306249791,
                        0.7857127244022002,
                        0.3532255172577598
                    ],
                    [
                        -0.7212357332467824,
                        -1.0147294727096026,
                        0.6396721717596414,
                        0.38185607570676483,
                        1.2427639273825695,
                        -0.8350440510597618
                    ],
                    [
                        -0.7235205741865522,
                        0.9162472075437581,
                        -0.22074560894023193,
                        -0.3151358571354431,
                        0.6123891001206744,
                        0.18184216983696871
                    ]
                ],
                [
                    [
                        0.3255549878734663,
                        0.3706983739245562,
                        1.1137343869005445,
                        0.47011383607463725
                    ],
                    [
                        0.5122692249441663,
                        -0.36883924406731583,
                        0.40554682714410833,
                        -0.33913528879145555
                    ]
                ]
            ],
            "actfuncs": [
                [
                    "relu",
                    "relu",
                    "relu",
                    "relu"
                ],
                [
                    "sigmoid",
                    "sigmoid"
                ]
            ]
        },
        {
            "_info": "NeuralNetwork generated with python-neural-network by rafaelurben",
            "_url": "https://github.com/rafaelurben/python-neural-network",
            "sizes": [
                6,
                4,
                2
            ],
            "biases": [
                [
                    0.6046693500793169,
                    -0.3921727882348463,
                    -0.6402281411690237,
                    0.10516933585889815
                ],
                [
                    0.7982324818905251,
                    -0.30491870466026527
                ]
            ],
            "weights": [
                [
                    [
                        -0.9652273548794879,
                        0.16995304438316178,
                        -0.6191167175013585,
                        1.4019176384396552,
                        -0.08613803721901696,
                        -0.20513800057405895
                    ],
                    [
                        0.07099068954046368,
                        0.33994945313662767,
                        -0.46276296159170455,
                        -0.1436364306249791,
                        0.7857127244022002,
                        0.3532255172577598
                    ],
                    [
                        -0.7226167966199691,
                        -1.0147294727096026,
                        0.6420097888718833,
                        0.38181748728709064,
                        1.2427639273825695,
                        -0.8350440510597618
                    ],
                    [
                        -0.7235205741865522,
                        0.9157935971718023,
                        -0.22074560894023193,
                        -0.3151358571354431,
                        0.6140168482267252,
                        0.1832853757101549
                    ]
                ],
                [
                    [
                        0.32319057585363575,
                        0.3706983739245562,
                        1.111487904765306,
                        0.46907036806463026
                    ],
                    [
                        0.5142154633274827,
                        -0.3663079426952643,
                        0.40554682714410833,
                        -0.34128459335665284
                    ]
                ]
            ],
            "actfuncs": [
                [
                    "relu",
                    "relu",
                    "relu",
                    "relu"
                ],
                [
                    "sigmoid",
                    "sigmoid"
                ]
            ]
        },
        {
            "_info": "NeuralNetwork generated with python-neural-network by rafaelurben",
            "_url": "https://github.com/rafaelurben/python-neural-network",
            "sizes": [
                6,
                4,
                2
            ],
            "biases": [
                [
                    0.6046693500793169,
                    -0.3935197087918908,
                    -0.6410770732838529,
                    0.10516933585889815
                ],
                [
                    0.7989909221006677,
                    -0.30491870466026527
                ]
            ],
            "weights": [
                [
                    [
                        -0.967037915541406,
                        0.16995304438316178,
                        -0.6185234284697547,
                        1.4004771977947366,
                        -0.08613803721901696,
                        -0.20798575505824074
                    ],
                    [
                        0.0715942536837922,
                        0.34176419474126307,
                        -0.46276296159170455,
                        -0.1436364306249791,
                        0.7857127244022002,
                        0.35494283431787144
                    ],
                    [
                        -0.7226167966199691,
                        -1.016153802583467,
                        0.6396721717596414,
                        0.3823103094695793,
                        1.241587562687595,
                        -0.8342669685746705
                    ],
                    [
                        -0.7235205741865522,
                        0.9162472075437581,
                        -0.22074560894023193,
                        -0.3151358571354431,
                        0.6123891001206744,
                        0.1832853757101549
                    ]
                ],
                [
                    [
                        0.325387575612299,
                        0.3714694146581958,
                        1.109931981276829,
                        0.47065621712347083
                    ],
                    [
                        0.5129084782906183,
                        -0.3663079426952643,
                        0.40554682714410833,
                        -0.3366547281601889
                    ]
                ]
            ],
            "actfuncs": [
                [
                    "relu",
                    "relu",
                    "relu",
                    "relu"
                ],
                [
                    "sigmoid",
                    "sigmoid"
                ]
            ]
        },
        {
            "_info": "NeuralNetwork generated with python-neural-network by rafaelurben",
            "_url": "https://github.com/rafaelurben/python-neural-network",
            "sizes": [
                6,
                4,
                2
            ],
            "biases": [
                [
                    0.6034304564417445,
                    -0.3921727882348463,
                    -0.6396877856377535,
                    0.10516933585889815
                ],
                [
                    0.7984433191237003,
                    -0.30491870466026527
                ]
            ],
            "weights": [
                [
                    [
                        -0.9670539880783225,
                        0.16780229542358935,
                        -0.6202931955793008,
                        1.4016667577061594,
                        -0.08430373747194383,
                        -0.20789564974187047
                    ],
                    [
                        0.07099068954046368,
                        0.34009184096769496,
                        -0.46434130444060107,
                        -0.1436364306249791,
                        0.7857127244022002,
                        0.3523898597265442
                    ],
                    [
                        -0.720880939950748,
                        -1.0147294727096026,
                        0.6396721717596414,
                        0.38181748728709064,
                        1.2427639273825695,
                        -0.8338279086667524
                    ],
                    [
                        -0.7216839557426082,
                        0.9143699821817062,
                        -0.2225156906563108,
                        -0.3151358571354431,
                        0.6113098064516356,
                        0.1832853757101549
                    ]
                ],
                [
                    [
                        0.3250301537279732,
                        0.3706983739245562,
                        1.111487904765306,
                        0.46802765936493307
                    ],
                    [
                        0.5113932112548935,
                        -0.3663079426952643,
                        0.40554682714410833,
                        -0.3383349195465236
                    ]
                ]
            ],
            "actfuncs": [
                [
                    "relu",
                    "relu",
                    "relu",
                    "relu"
                ],
                [
                    "sigmoid",
                    "sigmoid"
                ]
            ]
        },
        {
            "_info": "NeuralNetwork generated with python-neural-network by rafaelurben",
            "_url": "https://github.com/rafaelurben/python-neural-network",
            "sizes": [
                6,
                4,
                2
            ],
            "biases": [
                [
                    0.6053294682314612,
                    -0.3921727882348463,
                    -0.6402281411690237,
                    0.10516933585889815
                ],
                [
                    0.7964399413157697,
                    -0.30491870466026527
                ]
            ],
            "weights": [
                [
                    [
                        -0.9639731796598464,
                        0.16995304438316178,
                        -0.6186456460043815,
                        1.4019176384396552,
                        -0.08788057809646391,
                        -0.20579419828693085
                    ],
                    [
                        0.07099068954046368,
                        0.3390312700499058,
                        -0.462638136952067,
                        -0.1436364306249791,
                        0.7837485712786362,
                        0.3532255172577598
                    ],
                    [
                        -0.7212357332467824,
                        -1.0147294727096026,
                        0.6396721717596414,
                        0.38181748728709064,
                        1.2427639273825695,
                        -0.835319734269616
                    ],
                    [
                        -0.7230687382510002,
                        0.9162472075437581,
                        -0.22074560894023193,
                        -0.3151358571354431,
                        0.6123891001206744,
                        0.18184216983696871
                    ]
                ],
                [
                    [
                        0.32446879073625384,
                        0.3706983739245562,
                        1.1129760737960028,
                        0.4697033678292778
                    ],
                    [
                        0.5143701193804926,
                        -0.3652875158297855,
                        0.40554682714410833,
                        -0.33913528879145555
                    ]
                ]
            ],
            "actfuncs": [
                [
                    "relu",
                    "relu",
                    "relu",
                    "relu"
                ],
                [
                    "sigmoid",
                    "sigmoid"
                ]
            ]
        },
        {
            "_info": "NeuralNetwork generated with python-neural-network by rafaelurben",
            "_url": "https://github.com/rafaelurben/python-neural-network",
            "sizes": [
                6,
                4,
                2
            ],
            "biases": [
                [
                    0.6046693500793169,
                    -0.3921727882348463,
                    -0.6402281411690237,
                    0.10516933585889815
                ],
                [
                    0.7982324818905251,
                    -0.30534552685281363
                ]
            ],
            "weights": [
                [
                    [
                        -0.9652273548794879,
                        0.16995304438316178,
                        -0.6191167175013585,
                        1.3998180671372844,
                        -0.08613803721901696,
                        -0.20553407689425748
                    ],
                    [
                        0.07017756930199612,
                        0.3407430021154547,
                        -0.46276296159170455,
                        -0.14232324539019706,
                        0.7857127244022002,
                        0.3532255172577598
                    ],
                    [
                        -0.7226167966199691,
                        -1.0147294727096026,
                        0.6396721717596414,
                        0.3809585390904932,
                        1.2427639273825695,
                        -0.8350440510597618
                    ],
                    [
                        -0.7217762602747669,
                        0.91704766683189,
                        -0.22080515813735763,
                        -0.3151358571354431,
                        0.6127961793022438,
                        0.1832853757101549
                    ]
                ],
                [
                    [
                        0.3231945442695298,
                        0.3706983739245562,
                        1.111487904765306,
                        0.4682076639542851
                    ],
                    [
                        0.5129033453173053,
                        -0.3663079426952643,
                        0.40554682714410833,
                        -0.33913528879145555
                    ]
                ]
            ],
            "actfuncs": [
                [
                    "relu",
                    "relu",
                    "relu",
                    "relu"
                ],
                [
                    "sigmoid",
                    "sigmoid"
                ]
            ]
        },
        {
            "_info": "NeuralNetwork generated with python-neural-network by rafaelurben",
            "_url": "https://github.com/rafaelurben/python-neural-network",
            "sizes": [
                6,
                4,
                2
            ],
            "biases": [
                [
                    0.6052801553602399,
                    -0.3921727882348463,
                    -0.6402281411690237,
                    0.10516933585889815
                ],
                [
                    0.7977445789880253,
                    -0.30709181524000895
                ]
            ],
            "weights": [
                [
                    [
                        -0.9652273548794879,
                        0.16995304438316178,
                        -0.6203800398115755,
                        1.401265612354943,
                        -0.08520583385418774,
                        -0.20553407689425748
                    ],
                    [
                        0.07099068954046368,
                        0.33994945313662767,
                        -0.46276296159170455,
                        -0.1412439197313064,
                        0.7857127244022002,
                        0.3532255172577598
                    ],
                    [
                        -0.7226167966199691,
                        -1.0147294727096026,
                        0.6396721717596414,
                        0.3797927235023868,
                        1.2427639273825695,
                        -0.8326057269617068
                    ],
                    [
                        -0.7219630331778257,
                        0.9162725715569329,
                        -0.22117489259752868,
                        -0.31337882650392174,
                        0.6148363971931726,
                        0.1824414363687994
                    ]
                ],
                [
                    [
                        0.3261622831322964,
                        0.3683594378347444,
                        1.1102747914850133,
                        0.4676964946733107
                    ],
                    [
                        0.5122692249441663,
                        -0.3663079426952643,
                        0.40554682714410833,
                        -0.33913528879145555
                    ]
                ]
            ],
            "actfuncs": [
                [
                    "relu",
                    "relu",
                    "relu",
                    "relu"
                ],
                [
                    "sigmoid",
                    "sigmoid"
                ]
            ]
        },
        {
            "_info": "NeuralNetwork generated with python-neural-network by rafaelurben",
            "_url": "https://github.com/rafaelurben/python-neural-network",
            "sizes": [
                6,
                4,
                2
            ],
            "biases": [
                [
                    0.6034304564417445,
                    -0.3921727882348463,
                    -0.6396877856377535,
                    0.10285915672540527
                ],
                [
                    0.7982324818905251,
                    -0.30491870466026527
                ]
            ],
            "weights": [
                [
                    [
                        -0.9670539880783225,
                        0.16780229542358935,
                        -0.6191167175013585,
                        1.4016667577061594,
                        -0.08613803721901696,
                        -0.20858525559315816
                    ],
                    [
                        0.07099068954046368,
                        0.33819124573185744,
                        -0.46276296159170455,
                        -0.1436364306249791,
                        0.7857127244022002,
                        0.3532255172577598
                    ],
                    [
                        -0.7198708152181499,
                        -1.0147294727096026,
                        0.6396721717596414,
                        0.38181748728709064,
                        1.2427639273825695,
                        -0.8350440510597618
                    ],
                    [
                        -0.7235205741865522,
                        0.9143699821817062,
                        -0.22074560894023193,
                        -0.3151358571354431,
                        0.6087735254153331,
                        0.18545984851826855
                    ]
                ],
                [
                    [
                        0.32446879073625384,
                        0.3681510984644469,
                        1.111487904765306,
                        0.47011383607463725
                    ],
                    [
                        0.5122692249441663,
                        -0.3663079426952643,
                        0.40554682714410833,
                        -0.3383349195465236
                    ]
                ]
            ],
            "actfuncs": [
                [
                    "relu",
                    "relu",
                    "relu",
                    "relu"
                ],
                [
                    "sigmoid",
                    "sigmoid"
                ]
            ]
        },
        {
            "_info": "NeuralNetwork generated with python-neural-network by rafaelurben",
            "_url": "https://github.com/rafaelurben/python-neural-network",
            "sizes": [
                6,
                4,
                2
            ],
            "biases": [
                [
                    0.6046693500793169,
                    -0.3933820130318853,
                    -0.6414860059079864,
                    0.1029798339749426
                ],
                [
                    0.7977445789880253,
                    -0.30709181524000895
                ]
            ],
            "weights": [
                [
                    [
                        -0.9627753838155423,
                        0.16995304438316178,
                        -0.6203800398115755,
                        1.401265612354943,
                        -0.08520583385418774,
                        -0.20394102427135619
                    ],
                    [
                        0.07185141056291369,
                        0.3377114445657023,
                        -0.46276296159170455,
                        -0.14052733893272876,
                        0.7857127244022002,
                        0.3532255172577598
                    ],
                    [
                        -0.7226167966199691,
                        -1.0147294727096026,
                        0.6396721717596414,
                        0.3797927235023868,
                        1.2427639273825695,
                        -0.8326057269617068
                    ],
                    [
                        -0.7235205741865522,
                        0.9161078426475829,
                        -0.22302205872104525,
                        -0.3136050113311773,
                        0.6166763740481248,
                        0.1832853757101549
                    ]
                ],
                [
                    [
                        0.32849692949089937,
                        0.3689978463680884,
                        1.1115636719024322,
                        0.4676964946733107
                    ],
                    [
                        0.5122692249441663,
                        -0.3663079426952643,
                        0.40554682714410833,
                        -0.33913528879145555
                    ]
                ]
            ],
            "actfuncs": [
                [
                    "relu",
                    "relu",
                    "relu",
                    "relu"
                ],
                [
                    "sigmoid",
                    "sigmoid"
                ]
            ]
        },
        {
            "_info": "NeuralNetwork generated with python-neural-network by rafaelurben",
            "_url": "https://github.com/rafaelurben/python-neural-network",
            "sizes": [
                6,
                4,
                2
            ],
            "biases": [
                [
                    0.6053294682314612,
                    -0.3921727882348463,
                    -0.6402281411690237,
                    0.10516933585889815
                ],
                [
                    0.7982324818905251,
                    -0.30491870466026527
                ]
            ],
            "weights": [
                [
                    [
                        -0.9655357986014923,
                        0.16949699079997152,
                        -0.6186456460043815,
                        1.4019176384396552,
                        -0.08788057809646391,
                        -0.20342285181462877
                    ],
                    [
                        0.07099068954046368,
                        0.3390312700499058,
                        -0.46366972637721565,
                        -0.1433482640897156,
                        0.7879843621483514,
                        0.35473212854298203
                    ],
                    [
                        -0.7235022928909836,
                        -1.0147294727096026,
                        0.6396721717596414,
                        0.38181748728709064,
                        1.2427639273825695,
                        -0.8350440510597618
                    ],
                    [
                        -0.7235205741865522,
                        0.9162472075437581,
                        -0.22074560894023193,
                        -0.3151358571354431,
                        0.6123891001206744,
                        0.18184216983696871
                    ]
                ],
                [
                    [
                        0.32446879073625384,
                        0.3706983739245562,
                        1.1129760737960028,
                        0.47011383607463725
                    ],
                    [
                        0.5122692249441663,
                        -0.3663079426952643,
                        0.40628313471711575,
                        -0.33987875823634467
                    ]
                ]
            ],
            "actfuncs": [
                [
                    "relu",
                    "relu",
                    "relu",
                    "relu"
                ],
                [
                    "sigmoid",
                    "sigmoid"
                ]
            ]
        },
        {
            "_info": "NeuralNetwork generated with python-neural-network by rafaelurben",
            "_url": "https://github.com/rafaelurben/python-neural-network",
            "sizes": [
                6,
                4,
                2
            ],
            "biases": [
                [
                    0.6034304564417445,
                    -0.3921727882348463,
                    -0.6396102028041791,
                    0.10516933585889815
                ],
                [
                    0.7982324818905251,
                    -0.30240390195945116
                ]
            ],
            "weights": [
                [
                    [
                        -0.9670539880783225,
                        0.16780229542358935,
                        -0.6191726332925509,
                        1.401536628238404,
                        -0.08613803721901696,
                        -0.20789564974187047
                    ],
                    [
                        0.06998304290395857,
                        0.33854801329606754,
                        -0.46276296159170455,
                        -0.1436364306249791,
                        0.7857127244022002,
                        0.3532255172577598
                    ],
                    [
                        -0.7212745312847713,
                        -1.0147294727096026,
                        0.6397030668745959,
                        0.38181748728709064,
                        1.2427639273825695,
                        -0.8350440510597618
                    ],
                    [
                        -0.7235205741865522,
                        0.9143699821817062,
                        -0.22262642371566183,
                        -0.3151358571354431,
                        0.6113098064516356,
                        0.1832853757101549
                    ]
                ],
                [
                    [
                        0.32446879073625384,
                        0.3706983739245562,
                        1.111487904765306,
                        0.47011383607463725
                    ],
                    [
                        0.5122692249441663,
                        -0.3663079426952643,
                        0.40554682714410833,
                        -0.3383349195465236
                    ]
                ]
            ],
            "actfuncs": [
                [
                    "relu",
                    "relu",
                    "relu",
                    "relu"
                ],
                [
                    "sigmoid",
                    "sigmoid"
                ]
            ]
        },
        {
            "_info": "NeuralNetwork generated with python-neural-network by rafaelurben",
            "_url": "https://github.com/rafaelurben/python-neural-network",
            "sizes": [
                6,
                4,
                2
            ],
            "biases": [
                [
                    0.6022782256133449,
                    -0.3935330046949427,
                    -0.6402281411690237,
                    0.10409440686108162
                ],
                [
                    0.7989909221006677,
                    -0.30491870466026527
                ]
            ],
            "weights": [
                [
                    [
                        -0.967037915541406,
                        0.16774347340126441,
                        -0.6168530274024018,
                        1.4004771977947366,
                        -0.08613803721901696,
                        -0.20614717270736194
                    ],
                    [
                        0.07099068954046368,
                        0.33994945313662767,
                        -0.46276296159170455,
                        -0.1436364306249791,
                        0.7853584682138082,
                        0.3532255172577598
                    ],
                    [
                        -0.7226167966199691,
                        -1.016153802583467,
                        0.6396721717596414,
                        0.38421687346488836,
                        1.2424102166876079,
                        -0.8342669685746705
                    ],
                    [
                        -0.7219828003997009,
                        0.9147773008087049,
                        -0.22074560894023193,
                        -0.3151358571354431,
                        0.6123891001206744,
                        0.18329501898416836
                    ]
                ],
                [
                    [
                        0.325387575612299,
                        0.3714694146581958,
                        1.109931981276829,
                        0.47011383607463725
                    ],
                    [
                        0.5122692249441663,
                        -0.3663079426952643,
                        0.40554682714410833,
                        -0.3376359331217338
                    ]
                ]
            ],
            "actfuncs": [
                [
                    "relu",
                    "relu",
                    "relu",
                    "relu"
                ],
                [
                    "sigmoid",
                    "sigmoid"
                ]
            ]
        },
        {
            "_info": "NeuralNetwork generated with python-neural-network by rafaelurben",
            "_url": "https://github.com/rafaelurben/python-neural-network",
            "sizes": [
                6,
                4,
                2
            ],
            "biases": [
                [
                    0.6017796844423358,
                    -0.3921727882348463,
                    -0.6396877856377535,
                    0.10516933585889815
                ],
                [
                    0.7982324818905251,
                    -0.30246930316449905
                ]
            ],
            "weights": [
                [
                    [
                        -0.9670539880783225,
                        0.16751757355506236,
                        -0.6191167175013585,
                        1.4016667577061594,
                        -0.08613803721901696,
                        -0.20614066217604246
                    ],
                    [
                        0.07258585847490082,
                        0.33994945313662767,
                        -0.46276296159170455,
                        -0.1436364306249791,
                        0.7857127244022002,
                        0.3532255172577598
                    ],
                    [
                        -0.7212745312847713,
                        -1.015653362913486,
                        0.6396721717596414,
                        0.38181748728709064,
                        1.2451347762954224,
                        -0.8350440510597618
                    ],
                    [
                        -0.7235205741865522,
                        0.9143699821817062,
                        -0.22074560894023193,
                        -0.3151358571354431,
                        0.6101995772169417,
                        0.1832853757101549
                    ]
                ],
                [
                    [
                        0.3266087513423879,
                        0.3706983739245562,
                        1.111487904765306,
                        0.4717170365797611
                    ],
                    [
                        0.5122692249441663,
                        -0.3663079426952643,
                        0.40554682714410833,
                        -0.3383349195465236
                    ]
                ]
            ],
            "actfuncs": [
                [
                    "relu",
                    "relu",
                    "relu",
                    "relu"
                ],
                [
                    "sigmoid",
                    "sigmoid"
                ]
            ]
        },
        {
            "_info": "NeuralNetwork generated with python-neural-network by rafaelurben",
            "_url": "https://github.com/rafaelurben/python-neural-network",
            "sizes": [
                6,
                4,
                2
            ],
            "biases": [
                [
                    0.6034304564417445,
                    -0.3921727882348463,
                    -0.6396877856377535,
                    0.10590107783033953
                ],
                [
                    0.7993314149647222,
                    -0.304215901189238
                ]
            ],
            "weights": [
                [
                    [
                        -0.9657783696988735,
                        0.16780229542358935,
                        -0.6213003784525555,
                        1.4016667577061594,
                        -0.08613803721901696,
                        -0.20789564974187047
                    ],
                    [
                        0.07099068954046368,
                        0.33994945313662767,
                        -0.46276296159170455,
                        -0.1436364306249791,
                        0.7857127244022002,
                        0.35513624954431244
                    ],
                    [
                        -0.7212745312847713,
                        -1.0147294727096026,
                        0.6396721717596414,
                        0.38167075593886923,
                        1.2427639273825695,
                        -0.8350440510597618
                    ],
                    [
                        -0.7235205741865522,
                        0.9129419183226495,
                        -0.22295385405413776,
                        -0.3151358571354431,
                        0.6113098064516356,
                        0.1832853757101549
                    ]
                ],
                [
                    [
                        0.3257832700466288,
                        0.3706983739245562,
                        1.111487904765306,
                        0.47011383607463725
                    ],
                    [
                        0.5122692249441663,
                        -0.3663079426952643,
                        0.40554682714410833,
                        -0.3383349195465236
                    ]
                ]
            ],
            "actfuncs": [
                [
                    "relu",
                    "relu",
                    "relu",
                    "relu"
                ],
                [
                    "sigmoid",
                    "sigmoid"
                ]
            ]
        },
        {
            "_info": "NeuralNetwork generated with python-neural-network by rafaelurben",
            "_url": "https://github.com/rafaelurben/python-neural-network",
            "sizes": [
                6,
                4,
                2
            ],
            "biases": [
                [
                    0.6046693500793169,
                    -0.3921727882348463,
                    -0.6402281411690237,
                    0.10516933585889815
                ],
                [
                    0.7982324818905251,
                    -0.30443202901885824
                ]
            ],
            "weights": [
                [
                    [
                        -0.9652273548794879,
                        0.16995304438316178,
                        -0.6191167175013585,
                        1.4033792179678113,
                        -0.08613803721901696,
                        -0.2066664982744995
                    ],
                    [
                        0.07128363135531618,
                        0.33994945313662767,
                        -0.46276296159170455,
                        -0.1436364306249791,
                        0.7857127244022002,
                        0.3532255172577598
                    ],
                    [
                        -0.7226167966199691,
                        -1.0147294727096026,
                        0.6392059562473051,
                        0.38181748728709064,
                        1.2435359821103222,
                        -0.8350440510597618
                    ],
                    [
                        -0.7235331242200453,
                        0.9177329361015262,
                        -0.21942407741522044,
                        -0.3151358571354431,
                        0.6123891001206744,
                        0.1832853757101549
                    ]
                ],
                [
                    [
                        0.32446879073625384,
                        0.3681487535609009,
                        1.111487904765306,
                        0.47011383607463725
                    ],
                    [
                        0.5122692249441663,
                        -0.3663079426952643,
                        0.40554682714410833,
                        -0.33913528879145555
                    ]
                ]
            ],
            "actfuncs": [
                [
                    "relu",
                    "relu",
                    "relu",
                    "relu"
                ],
                [
                    "sigmoid",
                    "sigmoid"
                ]
            ]
        },
        {
            "_info": "NeuralNetwork generated with python-neural-network by rafaelurben",
            "_url": "https://github.com/rafaelurben/python-neural-network",
            "sizes": [
                6,
                4,
                2
            ],
            "biases": [
                [
                    0.6034304564417445,
                    -0.3921727882348463,
                    -0.6396877856377535,
                    0.10516933585889815
                ],
                [
                    0.7957442440120811,
                    -0.30491870466026527
                ]
            ],
            "weights": [
                [
                    [
                        -0.9647576211688311,
                        0.16780229542358935,
                        -0.6191167175013585,
                        1.4016667577061594,
                        -0.08613803721901696,
                        -0.20789564974187047
                    ],
                    [
                        0.07099068954046368,
                        0.3376937407037451,
                        -0.46276296159170455,
                        -0.14140867889933387,
                        0.7857127244022002,
                        0.3532255172577598
                    ],
                    [
                        -0.7202860453751161,
                        -1.0147294727096026,
                        0.6396721717596414,
                        0.38181748728709064,
                        1.2429516576300201,
                        -0.8365115039789587
                    ],
                    [
                        -0.7235205741865522,
                        0.9138573134317888,
                        -0.22074560894023193,
                        -0.3151358571354431,
                        0.6113098064516356,
                        0.18173734015834414
                    ]
                ],
                [
                    [
                        0.32446879073625384,
                        0.3706983739245562,
                        1.111391050861038,
                        0.47011383607463725
                    ],
                    [
                        0.5099209392869225,
                        -0.3663079426952643,
                        0.40554682714410833,
                        -0.3383349195465236
                    ]
                ]
            ],
            "actfuncs": [
                [
                    "relu",
                    "relu",
                    "relu",
                    "relu"
                ],
                [
                    "sigmoid",
                    "sigmoid"
                ]
            ]
        },
        {
            "_info": "NeuralNetwork generated with python-neural-network by rafaelurben",
            "_url": "https://github.com/rafaelurben/python-neural-network",
            "sizes": [
                6,
                4,
                2
            ],
            "biases": [
                [
                    0.6049830295338705,
                    -0.3921727882348463,
                    -0.6402281411690237,
                    0.10556828144146277
                ],
                [
                    0.796173976168742,
                    -0.30491870466026527
                ]
            ],
            "weights": [
                [
                    [
                        -0.9652273548794879,
                        0.16995304438316178,
                        -0.6191167175013585,
                        1.4019176384396552,
                        -0.08613803721901696,
                        -0.20553407689425748
                    ],
                    [
                        0.07099068954046368,
                        0.33994945313662767,
                        -0.46031911711100554,
                        -0.14443221561678882,
                        0.7857127244022002,
                        0.35469924157982397
                    ],
                    [
                        -0.7226167966199691,
                        -1.0147294727096026,
                        0.6396721717596414,
                        0.38181748728709064,
                        1.2427639273825695,
                        -0.8344318339679216
                    ],
                    [
                        -0.7246207692088393,
                        0.9162472075437581,
                        -0.22074560894023193,
